{"learner":{"attributes":{},"feature_names":["home_win_rate_10","home_racha","home_runs_avg","home_runs_diff","away_win_rate_10","away_racha","away_runs_avg","away_runs_diff","home_team_OPS","away_team_OPS","diff_team_BA","diff_team_OPS","diff_team_ERA","home_starter_WHIP","away_starter_WHIP","home_starter_ERA","away_starter_ERA","diff_starter_ERA","diff_starter_WHIP","diff_starter_SO9","home_best_OPS","away_best_OPS","diff_best_BA","diff_best_OPS","diff_best_HR","home_bullpen_WHIP","away_bullpen_WHIP","diff_bullpen_ERA","diff_bullpen_WHIP","anchor_pitching_level","anchor_offensive_level","year","super_neutralizacion_whip_ops","super_resistencia_era_ops","super_muro_bullpen"],"feature_types":["float","float","float","float","float","float","float","float","float","float","float","float","float","float","float","float","float","float","float","float","float","float","float","float","float","float","float","float","float","float","float","float","float","float","float"],"gradient_booster":{"model":{"cats":{"enc":[],"feature_segments":[],"sorted_idx":[]},"gbtree_model_param":{"num_parallel_tree":"1","num_trees":"500"},"iteration_indptr":[0,1,2,3,4,5,6,7,8,9,10,11,12,13,14,15,16,17,18,19,20,21,22,23,24,25,26,27,28,29,30,31,32,33,34,35,36,37,38,39,40,41,42,43,44,45,46,47,48,49,50,51,52,53,54,55,56,57,58,59,60,61,62,63,64,65,66,67,68,69,70,71,72,73,74,75,76,77,78,79,80,81,82,83,84,85,86,87,88,89,90,91,92,93,94,95,96,97,98,99,100,101,102,103,104,105,106,107,108,109,110,111,112,113,114,115,116,117,118,119,120,121,122,123,124,125,126,127,128,129,130,131,132,133,134,135,136,137,138,139,140,141,142,143,144,145,146,147,148,149,150,151,152,153,154,155,156,157,158,159,160,161,162,163,164,165,166,167,168,169,170,171,172,173,174,175,176,177,178,179,180,181,182,183,184,185,186,187,188,189,190,191,192,193,194,195,196,197,198,199,200,201,202,203,204,205,206,207,208,209,210,211,212,213,214,215,216,217,218,219,220,221,222,223,224,225,226,227,228,229,230,231,232,233,234,235,236,237,238,239,240,241,242,243,244,245,246,247,248,249,250,251,252,253,254,255,256,257,258,259,260,261,262,263,264,265,266,267,268,269,270,271,272,273,274,275,276,277,278,279,280,281,282,283,284,285,286,287,288,289,290,291,292,293,294,295,296,297,298,299,300,301,302,303,304,305,306,307,308,309,310,311,312,313,314,315,316,317,318,319,320,321,322,323,324,325,326,327,328,329,330,331,332,333,334,335,336,337,338,339,340,341,342,343,344,345,346,347,348,349,350,351,352,353,354,355,356,357,358,359,360,361,362,363,364,365,366,367,368,369,370,371,372,373,374,375,376,377,378,379,380,381,382,383,384,385,386,387,388,389,390,391,392,393,394,395,396,397,398,399,400,401,402,403,404,405,406,407,408,409,410,411,412,413,414,415,416,417,418,419,420,421,422,423,424,425,426,427,428,429,430,431,432,433,434,435,436,437,438,439,440,441,442,443,444,445,446,447,448,449,450,451,452,453,454,455,456,457,458,459,460,461,462,463,464,465,466,467,468,469,470,471,472,473,474,475,476,477,478,479,480,481,482,483,484,485,486,487,488,489,490,491,492,493,494,495,496,497,498,499,500],"tree_info":[0,0,0,0,0,0,0,0,0,0,0,0,0,0,0,0,0,0,0,0,0,0,0,0,0,0,0,0,0,0,0,0,0,0,0,0,0,0,0,0,0,0,0,0,0,0,0,0,0,0,0,0,0,0,0,0,0,0,0,0,0,0,0,0,0,0,0,0,0,0,0,0,0,0,0,0,0,0,0,0,0,0,0,0,0,0,0,0,0,0,0,0,0,0,0,0,0,0,0,0,0,0,0,0,0,0,0,0,0,0,0,0,0,0,0,0,0,0,0,0,0,0,0,0,0,0,0,0,0,0,0,0,0,0,0,0,0,0,0,0,0,0,0,0,0,0,0,0,0,0,0,0,0,0,0,0,0,0,0,0,0,0,0,0,0,0,0,0,0,0,0,0,0,0,0,0,0,0,0,0,0,0,0,0,0,0,0,0,0,0,0,0,0,0,0,0,0,0,0,0,0,0,0,0,0,0,0,0,0,0,0,0,0,0,0,0,0,0,0,0,0,0,0,0,0,0,0,0,0,0,0,0,0,0,0,0,0,0,0,0,0,0,0,0,0,0,0,0,0,0,0,0,0,0,0,0,0,0,0,0,0,0,0,0,0,0,0,0,0,0,0,0,0,0,0,0,0,0,0,0,0,0,0,0,0,0,0,0,0,0,0,0,0,0,0,0,0,0,0,0,0,0,0,0,0,0,0,0,0,0,0,0,0,0,0,0,0,0,0,0,0,0,0,0,0,0,0,0,0,0,0,0,0,0,0,0,0,0,0,0,0,0,0,0,0,0,0,0,0,0,0,0,0,0,0,0,0,0,0,0,0,0,0,0,0,0,0,0,0,0,0,0,0,0,0,0,0,0,0,0,0,0,0,0,0,0,0,0,0,0,0,0,0,0,0,0,0,0,0,0,0,0,0,0,0,0,0,0,0,0,0,0,0,0,0,0,0,0,0,0,0,0,0,0,0,0,0,0,0,0,0,0,0,0,0,0,0,0,0,0,0,0,0,0,0,0,0,0,0,0,0,0,0,0,0,0,0,0,0,0,0,0,0,0,0,0,0,0,0,0,0,0,0,0,0,0,0,0,0,0,0,0,0,0,0,0,0,0,0,0,0,0,0,0,0,0,0,0,0,0],"trees":[{"base_weights":[-1.5251212E-2,-4.5999327E-1,6.295054E-1,-1.0065378E0,-2.554588E-1,3.7627232E-1,1.0314908E0,-1.5174956E0,-5.673786E-1,-3.0064684E-1,3.9461154E-2,6.91392E-1,6.470063E-2,-2.8606737E-2,1.1091825E0,1.0770137E-2,-1.6407591E0,-6.628298E-1,3.2208644E-2,-5.739053E-1,-9.5216215E-2,-3.7041128E-1,7.908776E-1,2.0925432E-1,-1.2561874E0,-7.817631E-3,1.1445738E0,-1.7565666E0,-6.413883E-1,3.453265E-1,-8.151144E-1,-1.0666765E0,-3.4751993E-1,1.7194125E-1,-5.422139E-1,1.5062464E-2,-3.1399734E-2,3.655209E-1,1.0952425E0,-5.117284E-2,7.941751E-1,-7.817631E-3,-4.555197E-2,1.2748938E0,5.156942E-1,-7.817631E-3,-5.496851E-2,-3.726392E-2,4.1451645E-3,-1.324689E-2,2.4261551E-2,-4.904246E-2,-1.8801324E-2,-1.651559E-3,-3.904342E-2,1.8299272E-2,-1.4169894E-2,1.0826907E-2,-2.6191453E-2,-2.2344097E-2,2.6817784E-2,3.5213094E-2,-8.660805E-4,-6.772136E-3,3.6131587E-2,-9.050714E-3,2.3388993E-2,3.4180105E-2,-1.651559E-3,2.9422829E-2,4.874861E-2,-1.7689437E-2,2.3442551E-2],"categories":[],"categories_nodes":[],"categories_segments":[],"categories_sizes":[],"default_left":[0,0,0,0,0,0,0,0,0,0,0,0,0,0,0,0,0,0,0,0,0,0,0,0,0,0,0,0,0,0,0,0,0,0,0,0,0,0,0,0,0,0,0,0,0,0,0,0,0,0,0,0,0,0,0,0,0,0,0,0,0,0,0,0,0,0,0,0,0,0,0,0,0],"id":0,"left_children":[1,3,5,7,9,11,13,15,17,19,-1,21,23,-1,25,-1,27,29,-1,31,33,35,37,39,41,-1,43,45,47,49,51,53,55,57,59,-1,-1,61,63,65,67,-1,-1,69,71,-1,-1,-1,-1,-1,-1,-1,-1,-1,-1,-1,-1,-1,-1,-1,-1,-1,-1,-1,-1,-1,-1,-1,-1,-1,-1,-1,-1],"loss_changes":[1.0769424E2,2.4586266E1,1.5219215E1,1.2642899E1,1.1969783E1,9.345236E0,1.0107681E1,6.8848953E0,6.031128E0,8.888479E0,0E0,5.3047657E0,9.655734E0,0E0,3.0583038E0,0E0,1.8501434E0,5.3037167E0,0E0,7.2341557E0,1.1096734E1,3.3254917E0,5.257164E0,6.9255743E0,9.083791E-1,0E0,3.9062576E0,2.0682526E0,2.1601677E0,2.1785676E0,3.4100552E0,4.9102345E0,6.0475516E0,1.1852881E1,1.0764591E1,0E0,0E0,6.322443E0,3.8722038E0,6.9397645E0,4.161909E0,0E0,0E0,3.0857544E0,3.7615104E0,0E0,0E0,0E0,0E0,0E0,0E0,0E0,0E0,0E0,0E0,0E0,0E0,0E0,0E0,0E0,0E0,0E0,0E0,0E0,0E0,0E0,0E0,0E0,0E0,0E0,0E0,0E0,0E0],"parents":[2147483647,0,0,1,1,2,2,3,3,4,4,5,5,6,6,7,7,8,8,9,9,11,11,12,12,14,14,16,16,17,17,19,19,20,20,21,21,22,22,23,23,24,24,26,26,27,27,28,28,29,29,30,30,31,31,32,32,33,33,34,34,37,37,38,38,39,39,40,40,43,43,44,44],"right_children":[2,4,6,8,10,12,14,16,18,20,-1,22,24,-1,26,-1,28,30,-1,32,34,36,38,40,42,-1,44,46,48,50,52,54,56,58,60,-1,-1,62,64,66,68,-1,-1,70,72,-1,-1,-1,-1,-1,-1,-1,-1,-1,-1,-1,-1,-1,-1,-1,-1,-1,-1,-1,-1,-1,-1,-1,-1,-1,-1,-1,-1],"split_conditions":[1.5411727E-1,-8.666941E-1,5.404858E-1,-2.0353565E-1,1.930678E0,-4.226358E-1,-1.6851984E0,-1.0156457E-1,3.1907693E-1,-3.2933468E-1,3.9461154E-2,-1.4364141E0,1.4636757E0,-2.8606737E-2,-1.7656659E0,1.0770137E-2,6.0766622E-2,-1.0711311E-1,3.2208644E-2,-2.8266197E-1,2.0232208E-1,-1.9338721E-1,-1.6786365E-1,3.6959392E-1,-5.513426E-1,-7.817631E-3,2.5234586E-1,-2.0686297E-1,-1.7496292E-1,-3.762211E-1,-9.2234516E-1,-6.5636206E-1,-1.2772568E0,9.135279E-1,9.120557E-1,1.5062464E-2,-3.1399734E-2,-1.0961794E0,-9.28117E-1,7.570433E-1,6.005587E-1,-7.817631E-3,-4.555197E-2,2.7273294E-1,3.5746592E-1,-7.817631E-3,-5.496851E-2,-3.726392E-2,4.1451645E-3,-1.324689E-2,2.4261551E-2,-4.904246E-2,-1.8801324E-2,-1.651559E-3,-3.904342E-2,1.8299272E-2,-1.4169894E-2,1.0826907E-2,-2.6191453E-2,-2.2344097E-2,2.6817784E-2,3.5213094E-2,-8.660805E-4,-6.772136E-3,3.6131587E-2,-9.050714E-3,2.3388993E-2,3.4180105E-2,-1.651559E-3,2.9422829E-2,4.874861E-2,-1.7689437E-2,2.3442551E-2],"split_indices":[18,18,16,11,19,15,28,9,16,16,0,12,10,0,12,0,16,8,0,10,21,21,22,26,28,0,15,15,24,0,14,18,19,19,10,0,0,22,33,19,19,0,0,10,15,0,0,0,0,0,0,0,0,0,0,0,0,0,0,0,0,0,0,0,0,0,0,0,0,0,0,0,0],"split_type":[0,0,0,0,0,0,0,0,0,0,0,0,0,0,0,0,0,0,0,0,0,0,0,0,0,0,0,0,0,0,0,0,0,0,0,0,0,0,0,0,0,0,0,0,0,0,0,0,0,0,0,0,0,0,0,0,0,0,0,0,0,0,0,0,0,0,0,0,0,0,0,0,0],"sum_hessian":[3.7355804E2,2.2123827E2,1.523198E2,5.9179985E1,1.6205827E2,9.463804E1,5.768176E1,2.621898E1,3.2961006E1,1.5831271E2,3.7455688E0,4.6445053E1,4.8192986E1,1.7479321E0,5.5933826E1,1.4982275E0,2.4720755E1,3.1712482E1,1.2485229E0,6.717053E1,9.114217E1,3.7455688E0,4.2699486E1,4.4197712E1,3.9952734E0,1.2485229E0,5.4685303E1,2.1474594E1,3.2461596E0,3.9952734E0,2.7717209E1,1.9976366E1,4.7194168E1,5.7432053E1,3.3710117E1,1.7479321E0,1.9976367E0,1.8727844E1,2.397164E1,3.1213074E1,1.2984638E1,1.2485229E0,2.7467504E0,4.4447414E1,1.0237888E1,1.2485229E0,2.022607E1,1.4982275E0,1.7479321E0,1.4982275E0,2.4970458E0,3.7455688E0,2.397164E1,3.9952734E0,1.5981093E1,4.9940915E0,4.2200073E1,4.9191803E1,8.240252E0,2.996455E1,3.7455688E0,5.4935007E0,1.3234343E1,1.7479321E0,2.2223707E1,2.4471048E1,6.742024E0,8.989365E0,3.9952734E0,2.621898E1,1.8228436E1,1.7479321E0,8.489956E0],"tree_param":{"num_deleted":"0","num_feature":"35","num_nodes":"73","size_leaf_vector":"1"}},{"base_weights":[-6.6969433E-4,-3.8843745E-1,6.644515E-1,-6.83787E-1,-6.51481E-2,1.1840397E-1,8.220323E-1,-4.8308143E-1,-1.1294365E0,-4.5990276E-1,1.4654173E-1,9.073881E-1,-1.1903348E-1,4.0763423E-1,9.499615E-1,9.4715494E-1,-5.436224E-1,-1.2003322E0,1.1360355E-2,-7.5465244E-1,-2.717398E-2,5.626691E-1,-6.633666E-2,-7.999732E-3,1.1741182E0,5.777635E-1,-5.321986E-1,6.010834E-1,-5.355624E-1,1.2250468E0,3.8361558E-1,5.565001E-3,3.677287E-2,8.772361E-1,-6.007309E-1,-1.2766718E0,1.1153309E-2,-1.0737289E-1,-1.0478039E0,-7.621959E-1,4.131167E-1,8.337668E-1,-2.6264283E-1,-6.4102936E-1,1.896934E-1,4.129139E-2,5.3988216E-3,1.0408218E0,-6.1233735E-1,6.996518E-1,-8.46127E-1,-2.5472151E-2,7.386271E-1,2.2521043E-2,-3.750038E-2,-1.935301E-1,1.3165516E0,1.1935849E0,5.493408E-2,5.3169834E-3,3.467954E-2,-1.9356871E-2,2.103988E-2,-4.1250747E-2,3.899787E-3,-2.3838818E-2,1.1681636E-2,-3.6556028E-2,-1.5908802E-3,-3.8673937E-2,-1.3335965E-3,2.356792E-2,-2.4068192E-2,8.503213E-3,3.843093E-2,-3.329591E-2,1.0232399E-2,5.296584E-3,-3.317029E-2,2.8970288E-2,-2.0657924E-3,3.759711E-2,8.593718E-3,5.826131E-3,-3.4402307E-2,3.6930185E-2,-7.825573E-3,-3.1214722E-2,1.8935625E-2,4.2870226E-3,3.7378184E-2,-4.0045664E-2,3.419265E-2,1.6630346E-2,4.35373E-2,4.6862137E-2,1.0035719E-2,-2.9641386E-2,7.824075E-3],"categories":[],"categories_nodes":[],"categories_segments":[],"categories_sizes":[],"default_left":[0,0,0,0,0,0,0,0,0,0,0,0,0,0,0,0,0,0,0,0,0,0,0,0,0,0,0,0,0,0,0,0,0,0,0,0,0,0,0,0,0,0,0,0,0,0,0,0,0,0,0,0,0,0,0,0,0,0,0,0,0,0,0,0,0,0,0,0,0,0,0,0,0,0,0,0,0,0,0,0,0,0,0,0,0,0,0,0,0,0,0,0,0,0,0,0,0,0,0],"id":1,"left_children":[1,3,5,7,9,11,13,15,17,19,21,23,25,27,29,31,33,35,-1,37,39,41,43,-1,45,47,49,51,53,55,57,-1,-1,59,61,63,-1,65,67,69,71,73,75,77,79,-1,-1,81,83,85,87,-1,89,-1,-1,91,93,95,97,-1,-1,-1,-1,-1,-1,-1,-1,-1,-1,-1,-1,-1,-1,-1,-1,-1,-1,-1,-1,-1,-1,-1,-1,-1,-1,-1,-1,-1,-1,-1,-1,-1,-1,-1,-1,-1,-1,-1,-1],"loss_changes":[9.941981E1,2.32066E1,1.2118534E1,1.0827103E1,9.874765E0,6.283052E0,5.444542E0,8.25705E0,4.5960045E0,5.2355185E0,6.8718657E0,2.7372313E0,7.856479E0,5.376211E0,1.2508369E1,6.205368E-1,7.5392227E0,4.943409E0,0E0,4.531637E0,6.053916E0,6.0847254E0,7.7633905E0,0E0,1.0579271E0,6.2804737E0,7.1589837E0,5.3059645E0,5.7568254E0,7.473915E0,7.5724244E0,0E0,0E0,5.259905E-1,5.30044E0,5.1228714E0,0E0,3.2944622E0,2.7770195E0,2.5881634E0,5.9445643E0,4.553321E0,4.0831456E0,6.3627186E0,7.429901E0,0E0,0E0,8.815918E-1,1.7303624E0,2.360605E0,4.672473E0,0E0,6.45872E0,0E0,0E0,7.9762783E0,4.5722275E0,2.0837708E0,4.86483E0,0E0,0E0,0E0,0E0,0E0,0E0,0E0,0E0,0E0,0E0,0E0,0E0,0E0,0E0,0E0,0E0,0E0,0E0,0E0,0E0,0E0,0E0,0E0,0E0,0E0,0E0,0E0,0E0,0E0,0E0,0E0,0E0,0E0,0E0,0E0,0E0,0E0,0E0,0E0,0E0],"parents":[2147483647,0,0,1,1,2,2,3,3,4,4,5,5,6,6,7,7,8,8,9,9,10,10,11,11,12,12,13,13,14,14,15,15,16,16,17,17,19,19,20,20,21,21,22,22,24,24,25,25,26,26,27,27,28,28,29,29,30,30,33,33,34,34,35,35,37,37,38,38,39,39,40,40,41,41,42,42,43,43,44,44,47,47,48,48,49,49,50,50,52,52,55,55,56,56,57,57,58,58],"right_children":[2,4,6,8,10,12,14,16,18,20,22,24,26,28,30,32,34,36,-1,38,40,42,44,-1,46,48,50,52,54,56,58,-1,-1,60,62,64,-1,66,68,70,72,74,76,78,80,-1,-1,82,84,86,88,-1,90,-1,-1,92,94,96,98,-1,-1,-1,-1,-1,-1,-1,-1,-1,-1,-1,-1,-1,-1,-1,-1,-1,-1,-1,-1,-1,-1,-1,-1,-1,-1,-1,-1,-1,-1,-1,-1,-1,-1,-1,-1,-1,-1,-1,-1],"split_conditions":[2.4427897E-1,-2.9981288E-1,1.4289957E-1,1.0453572E0,-1.7526105E-1,2.9489216E-1,4.551673E-1,-8.647456E-4,2.466672E0,3.2050642E-1,2.0704563E-1,-2.4444358E-1,-2.2580164E-2,1.0695367E0,2.4173257E-1,1.8541878E-1,-1.9814377E0,1.6959511E0,1.1360355E-2,-4.4385755E-1,-8.0571854E-1,5.564938E-1,-1.7913538E-1,-7.999732E-3,5.0958073E-1,5.6256884E-1,-4.376168E-1,-1.197808E0,-3.8813093E-1,-1.6024729E0,-8.796941E-1,5.565001E-3,3.677287E-2,-1.9821713E-2,1.930678E0,-4.9383014E-1,1.1153309E-2,2.874566E-1,4.4777372E-1,9.266515E-1,9.1716476E-2,-2.4777481E-2,-9.9846196E-1,-1.9363165E-1,-3.795848E-1,4.129139E-2,5.3988216E-3,4.4630253E-1,1.520024E-1,5.514125E-1,1.0089254E0,-2.5472151E-2,-2.9413435E-1,2.2521043E-2,-3.750038E-2,6.113423E-1,-7.7053976E-1,1.09002456E-1,-1.3772857E0,5.3169834E-3,3.467954E-2,-1.9356871E-2,2.103988E-2,-4.1250747E-2,3.899787E-3,-2.3838818E-2,1.1681636E-2,-3.6556028E-2,-1.5908802E-3,-3.8673937E-2,-1.3335965E-3,2.356792E-2,-2.4068192E-2,8.503213E-3,3.843093E-2,-3.329591E-2,1.0232399E-2,5.296584E-3,-3.317029E-2,2.8970288E-2,-2.0657924E-3,3.759711E-2,8.593718E-3,5.826131E-3,-3.4402307E-2,3.6930185E-2,-7.825573E-3,-3.1214722E-2,1.8935625E-2,4.2870226E-3,3.7378184E-2,-4.0045664E-2,3.419265E-2,1.6630346E-2,4.35373E-2,4.6862137E-2,1.0035719E-2,-2.9641386E-2,7.824075E-3],"split_indices":[17,17,18,32,30,17,17,7,6,32,30,32,13,10,25,13,19,19,0,20,23,25,23,0,32,9,18,5,29,5,0,0,0,20,19,17,0,4,14,34,33,14,22,18,22,0,0,10,28,24,26,0,13,0,0,10,11,22,27,0,0,0,0,0,0,0,0,0,0,0,0,0,0,0,0,0,0,0,0,0,0,0,0,0,0,0,0,0,0,0,0,0,0,0,0,0,0,0,0],"split_type":[0,0,0,0,0,0,0,0,0,0,0,0,0,0,0,0,0,0,0,0,0,0,0,0,0,0,0,0,0,0,0,0,0,0,0,0,0,0,0,0,0,0,0,0,0,0,0,0,0,0,0,0,0,0,0,0,0,0,0,0,0,0,0,0,0,0,0,0,0,0,0,0,0,0,0,0,0,0,0,0,0,0,0,0,0,0,0,0,0,0,0,0,0,0,0,0,0,0,0],"sum_hessian":[3.8347803E2,2.4250995E2,1.4096808E2,1.2614854E2,1.1636141E2,3.1962677E1,1.0900541E2,8.841389E1,3.773465E1,4.020865E1,7.615276E1,6.741076E0,2.5221601E1,2.6700745E1,8.2304665E1,2.9957826E0,8.5418106E1,3.623533E1,1.4993201E0,2.3474945E1,1.6733706E1,2.521676E1,5.0936E1,1.2480218E0,5.493054E0,9.240034E0,1.5981566E1,2.245745E1,4.2432947E0,5.461434E1,2.769032E1,1.2484876E0,1.7472951E0,2.745646E0,8.2672455E1,3.4736492E1,1.4988352E0,7.743512E0,1.5731433E1,5.994821E0,1.0738884E1,1.8973965E1,6.242796E0,1.5235105E1,3.5700897E1,4.2449493E0,1.2481048E0,6.7421527E0,2.4978812E0,2.9961236E0,1.2985443E1,1.497358E0,2.0960093E1,1.4971514E0,2.7461433E0,3.2418468E0,5.1372494E1,7.233466E0,2.0456854E1,1.2478404E0,1.4978056E0,8.042826E1,2.2441983E0,3.2487484E1,2.2490108E0,2.9972644E0,4.746248E0,1.323501E1,2.4964228E0,2.9978437E0,2.9969776E0,8.490442E0,2.248442E0,9.23934E0,9.734624E0,2.2487273E0,3.9940684E0,5.7454944E0,9.489611E0,8.238916E0,2.746198E1,4.744791E0,1.9973613E0,1.2491797E0,1.2487015E0,1.7476773E0,1.2484463E0,1.1736953E1,1.2484908E0,1.0229495E1,1.0730598E1,1.7460266E0,1.4958202E0,8.483115E0,4.2889378E1,4.489423E0,2.7440436E0,2.7459228E0,1.771093E1],"tree_param":{"num_deleted":"0","num_feature":"35","num_nodes":"99","size_leaf_vector":"1"}},{"base_weights":[-2.5650203E-2,-4.3584925E-1,7.0693624E-1,-8.0265456E-1,-1.5259269E-1,8.431047E-1,2.0361516E-1,-1.5191046E0,-6.4968234E-1,2.7106333E-1,-2.9704618E-1,9.5670694E-1,1.3301757E-1,-9.788311E-1,4.4145927E-1,-1.6827055E0,-5.155346E-1,-4.085429E-1,-1.0590985E0,-3.9730873E-2,1.0190398E0,-9.566598E-1,-1.15366444E-1,7.0783734E-1,1.1996515E0,-6.6874135E-1,6.0620016E-1,5.0318874E-3,-4.065268E-2,-8.240087E-2,9.520751E-1,-5.3442717E-2,-2.057215E-2,-2.7779475E-2,6.458311E-3,2.6029554E-1,-6.813845E-1,-2.8262344E-1,-1.306485E0,-1.1416348E0,1.7539628E-1,-7.5346082E-3,1.2125968E0,-1.1398003E0,1.8858736E-2,8.3032346E-1,-2.0175129E-1,4.4041002E-1,1.1068261E0,7.2839516E-1,1.5632658E0,2.5858607E-2,-4.2410698E-2,9.6635216E-1,-1.5638383E-2,-6.0975564E-1,1.074091E0,-1.3641863E-2,1.1658634E0,3.9804474E-2,-3.6056368E-3,-2.8101806E-2,-1.1895775E-3,3.279392E-2,-1.902489E-2,-4.189987E-2,6.490373E-3,-4.2341303E-2,-7.330353E-3,-1.6342506E-2,1.8232292E-2,4.2345576E-2,9.341501E-3,1.0990777E-2,-3.8287304E-2,-1.29603E-2,3.7054595E-2,3.0634742E-2,-8.058776E-3,1.7493643E-2,-2.2545284E-2,1.0225683E-2,4.0139258E-2,2.834078E-2,-2.4224214E-2,5.026034E-3,4.887255E-2,4.7632274E-3,4.131473E-2,-4.5395494E-3,-3.1813864E-2,5.106205E-3,4.044222E-2,4.200869E-2,3.13371E-3],"categories":[],"categories_nodes":[],"categories_segments":[],"categories_sizes":[],"default_left":[0,0,0,0,0,0,0,0,0,0,0,0,0,0,0,0,0,0,0,0,0,0,0,0,0,0,0,0,0,0,0,0,0,0,0,0,0,0,0,0,0,0,0,0,0,0,0,0,0,0,0,0,0,0,0,0,0,0,0,0,0,0,0,0,0,0,0,0,0,0,0,0,0,0,0,0,0,0,0,0,0,0,0,0,0,0,0,0,0,0,0,0,0,0,0],"id":2,"left_children":[1,3,5,7,9,11,13,15,17,19,21,23,25,27,29,31,33,35,37,39,41,43,45,47,49,51,53,-1,-1,55,57,-1,-1,-1,-1,59,61,63,65,67,69,-1,71,73,-1,75,77,79,81,83,85,-1,-1,87,-1,89,91,-1,93,-1,-1,-1,-1,-1,-1,-1,-1,-1,-1,-1,-1,-1,-1,-1,-1,-1,-1,-1,-1,-1,-1,-1,-1,-1,-1,-1,-1,-1,-1,-1,-1,-1,-1,-1,-1],"loss_changes":[1.1640403E2,2.5673782E1,9.358665E0,1.0844063E1,8.729687E0,8.675743E0,9.1301775E0,2.1282654E0,8.522175E0,8.515945E0,1.2577013E1,4.8290863E0,6.5559354E0,2.595707E0,7.1503158E0,2.7900314E-1,1.3989582E0,1.0891336E1,5.9683495E0,6.5339785E0,2.9449635E0,7.3145294E0,7.041579E0,4.72283E0,6.7580566E0,8.621824E0,4.8566246E0,0E0,0E0,9.174962E0,4.5806932E0,0E0,0E0,0E0,0E0,7.3559833E0,6.841179E0,5.1657667E0,3.7002754E0,7.437048E-1,7.5611615E0,0E0,1.2619734E0,4.727253E0,0E0,4.2326455E0,6.6456122E0,5.693707E0,2.8963814E0,8.05257E0,2.0366135E0,0E0,0E0,2.5929513E0,0E0,1.9538143E0,9.4373655E-1,0E0,2.8325424E0,0E0,0E0,0E0,0E0,0E0,0E0,0E0,0E0,0E0,0E0,0E0,0E0,0E0,0E0,0E0,0E0,0E0,0E0,0E0,0E0,0E0,0E0,0E0,0E0,0E0,0E0,0E0,0E0,0E0,0E0,0E0,0E0,0E0,0E0,0E0,0E0],"parents":[2147483647,0,0,1,1,2,2,3,3,4,4,5,5,6,6,7,7,8,8,9,9,10,10,11,11,12,12,13,13,14,14,15,15,16,16,17,17,18,18,19,19,20,20,21,21,22,22,23,23,24,24,25,25,26,26,29,29,30,30,35,35,36,36,37,37,38,38,39,39,40,40,42,42,43,43,45,45,46,46,47,47,48,48,49,49,50,50,53,53,55,55,56,56,58,58],"right_children":[2,4,6,8,10,12,14,16,18,20,22,24,26,28,30,32,34,36,38,40,42,44,46,48,50,52,54,-1,-1,56,58,-1,-1,-1,-1,60,62,64,66,68,70,-1,72,74,-1,76,78,80,82,84,86,-1,-1,88,-1,90,92,-1,94,-1,-1,-1,-1,-1,-1,-1,-1,-1,-1,-1,-1,-1,-1,-1,-1,-1,-1,-1,-1,-1,-1,-1,-1,-1,-1,-1,-1,-1,-1,-1,-1,-1,-1,-1,-1],"split_conditions":[2.4427897E-1,-4.4743472E-1,4.7827652E-1,-1.1613244E0,-6.444969E-1,3.2986248E-1,-7.293452E-1,1.1178081E0,1.0453572E0,4.7827652E-1,-6.292952E-1,4.0495288E-1,-6.011776E-2,1.3741307E-2,1.7570592E-1,3.4882897E-1,8.519446E-1,-6.904395E-1,6.207938E-2,-5.2813315E-1,-3.2886204E-1,1.111789E0,-4.592168E-1,3.5595748E-1,6.8714446E-1,-5.726664E-1,6.211708E-1,5.0318874E-3,-4.065268E-2,-7.7053976E-1,-5.282076E-1,-5.3442717E-2,-2.057215E-2,-2.7779475E-2,6.458311E-3,-6.5942466E-1,-3.0861315E-1,-5.1793927E-1,-5.4022557E-1,6.643341E-2,-1.6786365E-1,-7.5346082E-3,6.8913203E-1,-2.0569642E0,1.8858736E-2,-1.0350539E-1,-3.9682153E-1,2.6725262E-1,1.3836767E-3,1.5275839E-1,-9.574785E-1,2.5858607E-2,-4.2410698E-2,-6.8822414E-1,-1.5638383E-2,-1.4797937E0,-1.405618E0,-1.3641863E-2,3.1563264E-1,3.9804474E-2,-3.6056368E-3,-2.8101806E-2,-1.1895775E-3,3.279392E-2,-1.902489E-2,-4.189987E-2,6.490373E-3,-4.2341303E-2,-7.330353E-3,-1.6342506E-2,1.8232292E-2,4.2345576E-2,9.341501E-3,1.0990777E-2,-3.8287304E-2,-1.29603E-2,3.7054595E-2,3.0634742E-2,-8.058776E-3,1.7493643E-2,-2.2545284E-2,1.0225683E-2,4.0139258E-2,2.834078E-2,-2.4224214E-2,5.026034E-3,4.887255E-2,4.7632274E-3,4.131473E-2,-4.5395494E-3,-3.1813864E-2,5.106205E-3,4.044222E-2,4.200869E-2,3.13371E-3],"split_indices":[17,17,9,22,12,13,34,31,32,9,28,19,11,19,20,11,32,19,9,13,25,12,28,8,17,11,25,0,0,11,4,0,0,0,0,0,18,8,17,9,22,0,9,1,0,9,17,8,0,15,11,0,0,32,0,11,22,0,32,0,0,0,0,0,0,0,0,0,0,0,0,0,0,0,0,0,0,0,0,0,0,0,0,0,0,0,0,0,0,0,0,0,0,0,0],"split_type":[0,0,0,0,0,0,0,0,0,0,0,0,0,0,0,0,0,0,0,0,0,0,0,0,0,0,0,0,0,0,0,0,0,0,0,0,0,0,0,0,0,0,0,0,0,0,0,0,0,0,0,0,0,0,0,0,0,0,0,0,0,0,0,0,0,0,0,0,0,0,0,0,0,0,0,0,0,0,0,0,0,0,0,0,0,0,0,0,0,0,0,0,0,0,0],"sum_hessian":[3.8533444E2,2.4727959E2,1.3805486E2,1.0695007E2,1.403295E2,1.08127075E2,2.9927778E1,1.7246235E1,8.970384E1,3.5458797E1,1.04870705E2,9.291491E1,1.5212166E1,4.4900384E0,2.543774E1,1.4246986E1,2.9992495E0,5.771092E1,3.1992922E1,2.5719063E1,9.739733E0,2.1725958E1,8.314475E1,4.7830975E1,4.508393E1,5.492466E0,9.7197E0,1.2463353E0,3.2437034E0,1.2969975E1,1.2467765E1,1.224742E1,1.9995661E0,1.7495716E0,1.249678E0,1.6734438E1,4.0976482E1,8.247823E0,2.3745098E1,3.497534E0,2.2221529E1,1.2485721E0,8.491161E0,1.9727898E1,1.9980603E0,6.238412E0,7.690634E1,2.9896368E1,1.7934608E1,2.0943571E1,2.4140362E1,1.746583E0,3.7458832E0,7.474895E0,2.2448046E0,9.232674E0,3.737301E0,1.4960718E0,1.0971693E1,3.7462542E0,1.2988184E1,2.8984135E1,1.1992347E1,1.2492635E0,6.998559E0,2.2495817E1,1.249281E0,2.248623E0,1.248911E0,8.238663E0,1.3982866E1,6.491964E0,1.9991972E0,1.4987324E0,1.8229166E1,1.4985422E0,4.7398696E0,3.2476728E0,7.365867E1,2.715572E1,2.7406478E0,4.731206E0,1.3203402E1,1.8695574E1,2.2479973E0,1.2467946E0,2.2893568E1,2.9878178E0,4.487077E0,5.239271E0,3.993403E0,1.2464455E0,2.4908557E0,8.725311E0,2.2463818E0],"tree_param":{"num_deleted":"0","num_feature":"35","num_nodes":"95","size_leaf_vector":"1"}},{"base_weights":[-2.0871209E-2,5.4379237E-1,-4.562476E-1,7.31681E-1,2.2800025E-1,-2.7207318E-1,-1.0679615E0,8.688864E-1,8.8403285E-2,4.1129872E-1,-4.5029926E-1,-3.166475E-1,1.0598221E0,-1.1858909E0,-1.653871E-1,6.824019E-1,1.3211277E0,3.451783E-1,-3.6011547E-2,-3.443722E-1,5.9055114E-1,6.644784E-1,-9.1129225E-1,-8.017705E-1,-2.1411481E-1,4.44445E-2,-7.6134633E-3,1.0096965E-1,-1.2730333E0,-3.6041036E-2,3.3584076E-1,7.342051E-1,-2.6511358E-2,1.4215089E0,-9.034266E-3,9.4043845E-1,-1.8027258E-1,2.3145604E-1,-7.728109E-1,-5.619728E-2,7.2161436E-1,4.0465217E-2,-2.0798558E-2,-1.2033528E0,3.3261008E-3,6.2678206E-1,-9.7859085E-1,1.0330985E0,-2.5418925E-1,-1.2982592E-2,1.946773E-2,-1.324371E0,6.4894357E-3,3.2551005E-2,-1.3988182E-1,9.717377E-3,2.6886497E-2,1.3530654E-2,4.4383466E-2,3.5852738E-2,-8.072378E-3,-2.2246342E-2,2.2602312E-2,-2.1072391E-2,3.0683769E-2,-3.6022108E-2,1.0498313E-2,3.459417E-2,-1.5380251E-2,3.7886813E-2,1.5227329E-2,-7.461915E-3,-4.2643443E-2,-7.7117574E-3,3.5139058E-2,3.5153711E-3,-3.265309E-2,3.9388534E-2,5.0710295E-3,-1.3643908E-3,-1.6926691E-2,-4.1039653E-2,-9.697877E-3,-2.4259206E-2,1.556243E-2],"categories":[],"categories_nodes":[],"categories_segments":[],"categories_sizes":[],"default_left":[0,0,0,0,0,0,0,0,0,0,0,0,0,0,0,0,0,0,0,0,0,0,0,0,0,0,0,0,0,0,0,0,0,0,0,0,0,0,0,0,0,0,0,0,0,0,0,0,0,0,0,0,0,0,0,0,0,0,0,0,0,0,0,0,0,0,0,0,0,0,0,0,0,0,0,0,0,0,0,0,0,0,0,0,0],"id":3,"left_children":[1,3,5,7,9,11,13,15,17,19,21,23,25,27,29,31,33,35,-1,37,39,41,43,45,47,-1,-1,49,51,-1,53,55,-1,57,-1,59,61,63,65,67,69,-1,-1,71,-1,73,75,77,79,-1,-1,81,-1,-1,83,-1,-1,-1,-1,-1,-1,-1,-1,-1,-1,-1,-1,-1,-1,-1,-1,-1,-1,-1,-1,-1,-1,-1,-1,-1,-1,-1,-1,-1,-1],"loss_changes":[9.5603264E1,9.879581E0,2.4444698E1,9.252911E0,8.218799E0,1.0433459E1,5.175297E0,6.436531E0,6.9322786E0,7.1645546E0,7.915106E0,8.053019E0,3.5542474E0,5.115467E0,4.035044E0,5.8147316E0,4.390972E0,5.5494566E0,0E0,2.7655444E0,3.5927134E0,5.339029E0,3.2632856E0,7.8087406E0,7.153276E0,0E0,0E0,1.376638E0,3.4766617E0,0E0,2.1101837E0,3.8430748E0,0E0,6.312065E-1,0E0,2.8550286E0,5.7860994E0,4.592678E0,3.419323E0,5.0014052E0,3.4042473E0,0E0,0E0,1.3617115E0,0E0,2.1044345E0,3.2255707E0,8.636322E-1,8.669381E0,0E0,0E0,1.3250961E0,0E0,0E0,2.289958E0,0E0,0E0,0E0,0E0,0E0,0E0,0E0,0E0,0E0,0E0,0E0,0E0,0E0,0E0,0E0,0E0,0E0,0E0,0E0,0E0,0E0,0E0,0E0,0E0,0E0,0E0,0E0,0E0,0E0,0E0],"parents":[2147483647,0,0,1,1,2,2,3,3,4,4,5,5,6,6,7,7,8,8,9,9,10,10,11,11,12,12,13,13,14,14,15,15,16,16,17,17,19,19,20,20,21,21,22,22,23,23,24,24,27,27,28,28,30,30,31,31,33,33,35,35,36,36,37,37,38,38,39,39,40,40,43,43,45,45,46,46,47,47,48,48,51,51,54,54],"right_children":[2,4,6,8,10,12,14,16,18,20,22,24,26,28,30,32,34,36,-1,38,40,42,44,46,48,-1,-1,50,52,-1,54,56,-1,58,-1,60,62,64,66,68,70,-1,-1,72,-1,74,76,78,80,-1,-1,82,-1,-1,84,-1,-1,-1,-1,-1,-1,-1,-1,-1,-1,-1,-1,-1,-1,-1,-1,-1,-1,-1,-1,-1,-1,-1,-1,-1,-1,-1,-1,-1,-1],"split_conditions":[-6.1454117E-2,-1.3418233E-1,9.564832E-1,-2.5032765E-1,4.691277E-1,1.7741934E0,6.0766622E-2,9.2267007E-1,9.173293E-1,-1.7159854E0,-2.7937317E-1,-3.2694232E-1,-1.4913668E-1,-2.2346087E-1,-1.2772568E0,1.8027716E0,2.6640992E0,1.1533669E-2,-3.6011547E-2,1.07483946E-1,-5.5658054E-1,1.9119653E-1,1.3947496E0,-1.8837937E0,-1.9814377E0,4.44445E-2,-7.6134633E-3,2.0269594E-1,2.7711487E0,-3.6041036E-2,-8.469242E-1,-6.450101E-2,-2.6511358E-2,-2.0954845E0,-9.034266E-3,8.7440675E-1,-1.4600396E-1,-4.635657E-1,6.62192E-1,-1.8236879E-1,-4.7796214E-1,4.0465217E-2,-2.0798558E-2,-5.079755E-1,3.3261008E-3,3.9687717E-1,-1.0816511E0,2.13398E-1,4.4468543E-1,-1.2982592E-2,1.946773E-2,1.13271E0,6.4894357E-3,3.2551005E-2,-3.3072606E-1,9.717377E-3,2.6886497E-2,1.3530654E-2,4.4383466E-2,3.5852738E-2,-8.072378E-3,-2.2246342E-2,2.2602312E-2,-2.1072391E-2,3.0683769E-2,-3.6022108E-2,1.0498313E-2,3.459417E-2,-1.5380251E-2,3.7886813E-2,1.5227329E-2,-7.461915E-3,-4.2643443E-2,-7.7117574E-3,3.5139058E-2,3.5153711E-3,-3.265309E-2,3.9388534E-2,5.0710295E-3,-1.3643908E-3,-1.6926691E-2,-4.1039653E-2,-9.697877E-3,-2.4259206E-2,1.556243E-2],"split_indices":[33,32,32,33,28,19,16,28,12,11,8,30,34,15,19,22,27,21,0,12,26,13,27,12,19,0,0,33,6,0,19,19,0,33,0,19,15,12,0,20,15,0,0,12,0,32,19,20,33,0,0,21,0,0,22,0,0,0,0,0,0,0,0,0,0,0,0,0,0,0,0,0,0,0,0,0,0,0,0,0,0,0,0,0,0],"split_type":[0,0,0,0,0,0,0,0,0,0,0,0,0,0,0,0,0,0,0,0,0,0,0,0,0,0,0,0,0,0,0,0,0,0,0,0,0,0,0,0,0,0,0,0,0,0,0,0,0,0,0,0,0,0,0,0,0,0,0,0,0,0,0,0,0,0,0,0,0,0,0,0,0,0,0,0,0,0,0,0,0,0,0,0,0],"sum_hessian":[3.8687302E2,1.6832025E2,2.1855278E2,1.0470584E2,6.3614403E1,1.690885E2,4.9464287E1,8.600996E1,1.8695885E1,5.039081E1,1.3223595E1,1.6435046E2,4.738032E0,4.3470566E1,5.9937205E0,6.2674618E1,2.3335337E1,1.6200338E1,2.495547E0,9.484793E0,4.0906017E1,3.7394397E0,9.484156E0,2.748558E1,1.3686488E2,3.4899669E0,1.2480649E0,2.7469382E0,4.072363E1,1.4988725E0,4.494848E0,6.118206E1,1.4925607E0,2.2092098E1,1.2432396E0,7.2253184E0,8.975019E0,4.2425323E0,5.242261E0,6.9890194E0,3.3916996E1,2.4906392E0,1.2488005E0,7.238617E0,2.2455385E0,2.7470555E0,2.4738525E1,3.489319E0,1.3337556E2,1.498043E0,1.2488953E0,3.9473743E1,1.2498848E0,1.2482412E0,3.2466068E0,1.816887E1,4.3013187E1,1.7395294E0,2.0352568E1,5.9785233E0,1.2467953E0,5.733925E0,3.2410944E0,1.9975553E0,2.244977E0,3.7453165E0,1.4969443E0,1.4969683E0,5.492051E0,8.22255E0,2.5694447E1,1.7442684E0,5.4943485E0,1.2484857E0,1.4985697E0,2.247884E0,2.249064E1,2.2432644E0,1.2460545E0,8.0399E1,5.2976562E1,3.7474533E1,1.9992121E0,1.4979045E0,1.7487023E0],"tree_param":{"num_deleted":"0","num_feature":"35","num_nodes":"85","size_leaf_vector":"1"}},{"base_weights":[3.4468487E-2,-4.138888E-1,5.1816446E-1,-2.7758473E-1,-9.441329E-1,2.6101282E-1,8.036008E-1,4.8221678E-1,-3.347389E-1,-1.0315465E0,2.3354841E-2,8.806581E-1,1.4949052E-1,-5.265503E-1,8.66099E-1,3.8287453E-2,-2.4484469E-2,-4.1436952E-1,1.2804213E-1,-1.123832E0,4.477818E-2,1.1624583E0,4.3917444E-2,-4.4443704E-2,5.863538E-1,-3.9939404E-2,1.4140492E-2,9.3363E-1,-3.5999916E-2,5.847803E-1,-3.2837264E-2,5.658513E-1,-4.5723724E-1,-5.0225013E-1,5.658114E-1,-1.2490944E0,-2.1374168E-1,-2.5944145E-2,3.408118E-2,4.3529548E-2,-6.8435394E-3,-2.0918641E-2,2.5139134E-2,-5.537046E-1,1.5683222E-1,8.597446E-1,-5.860648E-1,6.49147E-1,1.1983598E0,-6.2110233E-1,2.7113525E-2,3.244669E-2,-2.004187E-2,-1.6655276E-2,3.5870716E-2,-3.089109E-2,-1.1688144E-2,-3.0093722E-2,1.4057887E-2,2.341988E-2,-1.7315013E-2,-1.2843787E-2,-4.2286836E-2,3.446013E-2,-3.0326936E-2,1.2861055E-2,-2.384069E-2,1.1241405E-2,-1.8888572E-2,6.578266E-3,4.1181594E-2,1.848042E-2,-3.2530658E-2,2.372705E-2,-3.6578649E-3,3.9107032E-2,3.1008592E-3,1.7813893E-2,-3.672145E-2],"categories":[],"categories_nodes":[],"categories_segments":[],"categories_sizes":[],"default_left":[0,0,0,0,0,0,0,0,0,0,0,0,0,0,0,0,0,0,0,0,0,0,0,0,0,0,0,0,0,0,0,0,0,0,0,0,0,0,0,0,0,0,0,0,0,0,0,0,0,0,0,0,0,0,0,0,0,0,0,0,0,0,0,0,0,0,0,0,0,0,0,0,0,0,0,0,0,0,0],"id":4,"left_children":[1,3,5,7,9,11,13,15,17,19,-1,21,23,25,27,-1,29,31,33,35,37,39,41,43,45,-1,-1,47,49,51,-1,53,55,57,59,61,63,-1,-1,-1,-1,-1,-1,65,67,69,71,73,75,77,-1,-1,-1,-1,-1,-1,-1,-1,-1,-1,-1,-1,-1,-1,-1,-1,-1,-1,-1,-1,-1,-1,-1,-1,-1,-1,-1,-1,-1],"loss_changes":[8.243322E1,1.3997814E1,1.3209015E1,7.0388403E0,6.8158035E0,6.6166577E0,7.6188545E0,4.6538634E0,5.502743E0,3.8677368E0,0E0,3.41284E0,7.1396894E0,4.232199E0,5.0700417E0,0E0,5.852501E0,5.570366E0,6.485346E0,3.7726555E0,4.9495163E0,4.7243614E0,3.3742347E0,6.142568E0,8.800583E0,0E0,0E0,5.0174637E0,4.25688E0,4.2988477E0,0E0,4.7190757E0,4.3093376E0,5.2070055E0,3.8229766E0,3.4727325E0,7.127544E0,0E0,0E0,0E0,0E0,0E0,0E0,4.354999E0,7.625167E0,6.7283077E0,3.9559176E0,4.389263E0,4.3210754E0,4.1950693E0,0E0,0E0,0E0,0E0,0E0,0E0,0E0,0E0,0E0,0E0,0E0,0E0,0E0,0E0,0E0,0E0,0E0,0E0,0E0,0E0,0E0,0E0,0E0,0E0,0E0,0E0,0E0,0E0,0E0],"parents":[2147483647,0,0,1,1,2,2,3,3,4,4,5,5,6,6,7,7,8,8,9,9,11,11,12,12,13,13,14,14,16,16,17,17,18,18,19,19,20,20,21,21,22,22,23,23,24,24,27,27,28,28,29,29,31,31,32,32,33,33,34,34,35,35,36,36,43,43,44,44,45,45,46,46,47,47,48,48,49,49],"right_children":[2,4,6,8,10,12,14,16,18,20,-1,22,24,26,28,-1,30,32,34,36,38,40,42,44,46,-1,-1,48,50,52,-1,54,56,58,60,62,64,-1,-1,-1,-1,-1,-1,66,68,70,72,74,76,78,-1,-1,-1,-1,-1,-1,-1,-1,-1,-1,-1,-1,-1,-1,-1,-1,-1,-1,-1,-1,-1,-1,-1,-1,-1,-1,-1,-1,-1],"split_conditions":[-1.7222546E-2,1.0453572E0,5.046706E-1,-1.601302E0,1.6959511E0,-1.3054217E-1,-2.0430124E0,1.20815985E-1,2.0459697E-1,6.8418646E-1,2.3354841E-2,2.824061E-1,5.236274E-1,-4.834948E-1,1.4526911E0,3.8287453E-2,-6.450101E-2,-8.647456E-4,-9.2380434E-2,-4.1791037E-1,1.9054501E-1,6.0220784E-1,9.428861E-2,2.729338E-2,4.6731877E-1,-3.9939404E-2,1.4140492E-2,1.7517853E-1,3.5918605E-1,2.0833395E-1,-3.2837264E-2,-4.1802526E0,-1.2856545E0,-3.8536742E-2,-5.0964676E-2,3.633162E-2,-6.63725E-1,-2.5944145E-2,3.408118E-2,4.3529548E-2,-6.8435394E-3,-2.0918641E-2,2.5139134E-2,-1.2590418E0,4.620411E-1,-5.366305E-2,-1.1235242E0,5.3467876E-1,5.320798E-1,-5.0927466E-1,2.7113525E-2,3.244669E-2,-2.004187E-2,-1.6655276E-2,3.5870716E-2,-3.089109E-2,-1.1688144E-2,-3.0093722E-2,1.4057887E-2,2.341988E-2,-1.7315013E-2,-1.2843787E-2,-4.2286836E-2,3.446013E-2,-3.0326936E-2,1.2861055E-2,-2.384069E-2,1.1241405E-2,-1.8888572E-2,6.578266E-3,4.1181594E-2,1.848042E-2,-3.2530658E-2,2.372705E-2,-3.6578649E-3,3.9107032E-2,3.1008592E-3,1.7813893E-2,-3.672145E-2],"split_indices":[17,32,18,12,19,20,4,29,18,10,0,21,27,15,4,0,19,7,27,17,21,26,27,20,9,0,0,27,11,26,0,7,23,32,17,9,12,0,0,0,0,0,0,22,28,9,10,28,21,27,0,0,0,0,0,0,0,0,0,0,0,0,0,0,0,0,0,0,0,0,0,0,0,0,0,0,0,0,0],"split_type":[0,0,0,0,0,0,0,0,0,0,0,0,0,0,0,0,0,0,0,0,0,0,0,0,0,0,0,0,0,0,0,0,0,0,0,0,0,0,0,0,0,0,0,0,0,0,0,0,0,0,0,0,0,0,0,0,0,0,0,0,0,0,0,0,0,0,0,0,0,0,0,0,0,0,0,0,0,0,0],"sum_hessian":[3.7811783E2,1.9630196E2,1.8181587E2,1.5737164E2,3.8930317E1,9.6654E1,8.5161865E1,1.0489415E1,1.4688222E2,3.743203E1,1.4982859E0,1.36903515E1,8.2963646E1,3.4886131E0,8.1673256E1,3.4945316E0,6.9948835E0,1.2540792E2,2.1474298E1,3.4435364E1,2.9966686E0,9.950067E0,3.7402844E0,5.8079163E1,2.4884487E1,1.7462351E0,1.742378E0,7.595251E1,5.7207475E0,4.746149E0,2.2487345E0,4.743447E0,1.20664474E2,8.741357E0,1.2732942E1,2.9941763E1,4.493599E0,1.7475646E0,1.249104E0,8.204332E0,1.7457348E0,1.9975471E0,1.7427374E0,1.5956257E1,4.2122906E1,2.0395294E1,4.489192E0,3.827436E1,3.7678146E1,3.7346709E0,1.9860765E0,3.496456E0,1.2496934E0,1.7490041E0,2.9944427E0,1.1246338E1,1.0941814E2,5.744459E0,2.9968977E0,1.0985025E1,1.7479162E0,5.495273E0,2.4446491E1,1.49594E0,2.9976587E0,2.9896424E0,1.2966615E1,3.3394665E1,8.728239E0,9.705309E0,1.0689986E1,1.2463163E0,3.242876E0,3.2308964E1,5.9653964E0,3.420157E1,3.476577E0,1.2437556E0,2.490915E0],"tree_param":{"num_deleted":"0","num_feature":"35","num_nodes":"79","size_leaf_vector":"1"}},{"base_weights":[-7.3797954E-3,3.6020982E-1,-5.133661E-1,-9.929364E-3,6.0958284E-1,-2.5316086E-1,-9.4789493E-1,1.2452352E0,-9.802239E-2,3.501716E-1,9.4157785E-1,9.0812194E-1,-3.3190498E-1,-1.0282218E0,2.3044033E-2,4.7019823E-3,4.495162E-2,8.471795E-2,-5.115984E-1,-4.7292113E-3,5.9045684E-1,-1.542347E-2,1.0101749E0,4.2208597E-2,2.1344173E-1,1.2482098E-1,-5.2343744E-1,-8.297344E-2,-1.1019226E0,7.2922134E-1,-1.000598E-1,-1.03517614E-1,-1.3151181E0,-4.4782352E-1,5.902391E-1,8.3905655E-1,1.9223939E-1,1.3757335E0,8.036838E-1,-1.7139686E-2,3.2321494E-2,-8.9365035E-1,5.013497E-1,-1.3709023E0,-2.8821784E-1,4.0345633E-1,-2.3385646E-2,-1.2227676E0,-2.917566E-1,-1.3166061E-2,2.7364718E-2,-3.04902E-2,2.3029263E-3,-2.532135E-2,1.7254038E-2,-4.624412E-2,-1.1014717E-2,2.7159901E-2,-2.2878436E-2,3.681801E-2,-5.136622E-3,2.9282887E-2,-1.1631149E-2,2.260394E-2,-8.142791E-3,-3.0895881E-3,4.5328997E-2,-2.928985E-2,2.7516449E-2,-3.3755668E-2,6.714E-3,2.6322363E-2,-1.1534247E-2,-4.6073582E-2,6.293884E-3,1.285807E-3,-2.1554666E-2,3.3395678E-2,-1.1893361E-2,-2.2232486E-2,-4.095716E-2,2.6042683E-2,-2.2132821E-2],"categories":[],"categories_nodes":[],"categories_segments":[],"categories_sizes":[],"default_left":[0,0,0,0,0,0,0,0,0,0,0,0,0,0,0,0,0,0,0,0,0,0,0,0,0,0,0,0,0,0,0,0,0,0,0,0,0,0,0,0,0,0,0,0,0,0,0,0,0,0,0,0,0,0,0,0,0,0,0,0,0,0,0,0,0,0,0,0,0,0,0,0,0,0,0,0,0,0,0,0,0,0,0],"id":5,"left_children":[1,3,5,7,9,11,13,15,17,19,21,23,25,27,-1,-1,-1,29,31,33,35,-1,37,-1,39,41,43,45,47,49,51,53,55,57,59,61,63,65,67,-1,-1,69,71,73,75,77,-1,79,81,-1,-1,-1,-1,-1,-1,-1,-1,-1,-1,-1,-1,-1,-1,-1,-1,-1,-1,-1,-1,-1,-1,-1,-1,-1,-1,-1,-1,-1,-1,-1,-1,-1,-1],"loss_changes":[7.105412E1,2.0431099E1,1.7934776E1,1.0079817E1,1.105801E1,9.6198635E0,9.038414E0,1.4127321E0,6.473306E0,6.4684534E0,6.2517624E0,2.0348506E0,8.477595E0,3.9207573E0,0E0,0E0,0E0,7.2021747E0,8.459522E0,8.595292E0,4.315115E0,0E0,3.058117E0,0E0,3.3243072E0,1.1653392E1,1.3148973E1,2.0923262E0,4.865967E0,3.2763958E0,7.758548E0,9.767933E0,1.3102226E0,8.647783E0,6.9624944E0,5.008564E0,5.06449E0,3.8563347E0,8.50495E0,0E0,0E0,2.385387E0,7.6573358E0,4.1000957E0,7.7872934E0,2.5693903E0,0E0,2.15242E0,4.901697E0,0E0,0E0,0E0,0E0,0E0,0E0,0E0,0E0,0E0,0E0,0E0,0E0,0E0,0E0,0E0,0E0,0E0,0E0,0E0,0E0,0E0,0E0,0E0,0E0,0E0,0E0,0E0,0E0,0E0,0E0,0E0,0E0,0E0,0E0],"parents":[2147483647,0,0,1,1,2,2,3,3,4,4,5,5,6,6,7,7,8,8,9,9,10,10,11,11,12,12,13,13,17,17,18,18,19,19,20,20,22,22,24,24,25,25,26,26,27,27,28,28,29,29,30,30,31,31,32,32,33,33,34,34,35,35,36,36,37,37,38,38,41,41,42,42,43,43,44,44,45,45,47,47,48,48],"right_children":[2,4,6,8,10,12,14,16,18,20,22,24,26,28,-1,-1,-1,30,32,34,36,-1,38,-1,40,42,44,46,48,50,52,54,56,58,60,62,64,66,68,-1,-1,70,72,74,76,78,-1,80,82,-1,-1,-1,-1,-1,-1,-1,-1,-1,-1,-1,-1,-1,-1,-1,-1,-1,-1,-1,-1,-1,-1,-1,-1,-1,-1,-1,-1,-1,-1,-1,-1,-1,-1],"split_conditions":[1.4993222E-1,1.5411727E-1,7.9758507E-1,-1.3666283E0,5.404858E-1,-1.6849462E0,2.8662975E0,-5.570981E-1,4.7827652E-1,-2.0797999E-1,-1.6851984E0,-1.1418597E-1,1.4442486E-2,-3.2816923E-1,2.3044033E-2,4.7019823E-3,4.495162E-2,-3.7311497E-1,3.9294675E-1,3.2671055E-1,-4.0050524E-1,-1.542347E-2,-8.549348E-1,4.2208597E-2,4.510135E-1,-8.986717E-1,-7.168415E-1,6.138759E-1,6.0766622E-2,-4.184478E-1,-2.2167592E-1,-1.3382776E-1,7.530148E-2,-1.1314306E0,-1.1436257E-2,9.9689776E-1,1.8041743E-1,-1.6024729E0,-7.7632266E-1,-1.7139686E-2,3.2321494E-2,9.8290616E-1,5.008001E-1,6.023483E-1,4.3831885E-1,-1.6747768E-1,-2.3385646E-2,-1.1876341E-1,-4.4996228E-2,-1.3166061E-2,2.7364718E-2,-3.04902E-2,2.3029263E-3,-2.532135E-2,1.7254038E-2,-4.624412E-2,-1.1014717E-2,2.7159901E-2,-2.2878436E-2,3.681801E-2,-5.136622E-3,2.9282887E-2,-1.1631149E-2,2.260394E-2,-8.142791E-3,-3.0895881E-3,4.5328997E-2,-2.928985E-2,2.7516449E-2,-3.3755668E-2,6.714E-3,2.6322363E-2,-1.1534247E-2,-4.6073582E-2,6.293884E-3,1.285807E-3,-2.1554666E-2,3.3395678E-2,-1.1893361E-2,-2.2232486E-2,-4.095716E-2,2.6042683E-2,-2.2132821E-2],"split_indices":[33,18,32,12,16,12,6,33,9,24,28,26,15,9,0,0,0,18,28,19,15,0,34,0,22,16,23,22,16,33,18,14,15,0,26,12,20,5,34,0,0,28,20,8,8,21,0,20,21,0,0,0,0,0,0,0,0,0,0,0,0,0,0,0,0,0,0,0,0,0,0,0,0,0,0,0,0,0,0,0,0,0,0],"split_type":[0,0,0,0,0,0,0,0,0,0,0,0,0,0,0,0,0,0,0,0,0,0,0,0,0,0,0,0,0,0,0,0,0,0,0,0,0,0,0,0,0,0,0,0,0,0,0,0,0,0,0,0,0,0,0,0,0,0,0,0,0,0,0,0,0,0,0,0,0,0,0,0,0,0,0,0,0,0,0,0,0,0,0],"sum_hessian":[3.8002682E2,2.2028325E2,1.5974358E2,8.905739E1,1.3122586E2,1.0090318E2,5.884039E1,4.979084E0,8.40783E1,7.481913E1,5.640673E1,5.7387085E0,9.5164474E1,5.659214E1,2.248252E0,1.2449934E0,3.7340903E0,5.8864105E1,2.52142E1,3.0601337E1,4.4217793E1,2.2461681E0,5.4160564E1,2.7434123E0,2.995296E0,2.8219915E1,6.694456E1,4.247076E0,5.2345062E1,1.2459386E1,4.640472E1,1.7470398E1,7.743801E0,1.7680986E1,1.2920351E1,2.6541437E1,1.7676355E1,1.750622E1,3.6654343E1,1.7470543E0,1.2482419E0,7.2462263E0,2.0973688E1,1.3495149E1,5.344941E1,2.7484744E0,1.4986017E0,4.510751E1,7.2375536E0,1.4976299E0,1.0961756E1,6.7385635E0,3.9666157E1,8.23781E0,9.232588E0,5.7457495E0,1.998052E0,2.982879E0,1.4698108E1,6.7018976E0,6.218454E0,2.4058258E1,2.4831803E0,7.714109E0,9.962246E0,1.486827E0,1.6019394E1,1.7420323E0,3.491231E1,5.9967575E0,1.2494688E0,1.4729861E1,6.2438273E0,1.2246156E1,1.2489932E0,3.07154E1,2.2734007E1,1.2487932E0,1.4996811E0,1.1711929E1,3.339558E1,1.7472947E0,5.490259E0],"tree_param":{"num_deleted":"0","num_feature":"35","num_nodes":"83","size_leaf_vector":"1"}},{"base_weights":[-2.8411452E-2,-3.827089E-1,6.1291593E-1,-7.132793E-1,-1.4088042E-1,3.968205E-1,9.357293E-1,-8.026091E-1,3.1529814E-1,-6.671155E-1,8.956726E-3,1.20725386E-1,6.97198E-1,6.194249E-1,1.17174E0,-6.685075E-1,-1.3752179E0,-2.687606E-2,7.314859E-1,-1.2846276E0,-2.394994E-1,1.1582972E0,-5.8142956E-2,-7.66809E-1,2.9178128E-1,-5.396117E-2,1.0847114E0,8.631283E-1,-6.083115E-1,1.2829765E0,-2.2802101E-2,-7.525048E-1,-1.2070394E-1,-1.5137248E0,1.4291581E-3,1.1006844E0,-1.2306519E-2,-4.417275E-2,-5.056905E-1,-8.5484713E-1,6.080191E-1,4.4589438E-2,9.208614E-3,-7.513493E-1,4.7679123E-2,1.856314E-1,-1.2788746E0,-5.3173417E-1,5.4555166E-1,8.181122E-1,-4.3369988E-1,3.372044E-1,1.2997423E0,4.3162245E-2,1.0776161E0,9.99005E-3,-3.4343615E-2,1.3547653E0,6.4403163E-3,1.26197655E-2,-2.3957418E-2,2.3940057E-2,-1.6984995E-2,-4.8301533E-2,-1.0811684E-2,5.1559666E-3,4.390582E-2,6.3970457E-3,-2.7303895E-2,1.2656441E-2,-3.5773184E-2,-9.260249E-3,3.0266281E-2,-3.2401454E-2,6.043783E-3,-1.5395445E-2,5.4831114E-3,1.7929086E-2,-9.281981E-3,-4.6088237E-2,-8.328332E-3,-3.2827158E-2,-3.0968462E-3,1.9282676E-2,-1.9222535E-2,3.895036E-2,-8.708277E-3,3.0588584E-2,-2.1964625E-2,-1.4412613E-2,2.843176E-2,4.47062E-2,7.10649E-3,-2.5737556E-2,2.8080339E-2,4.0632397E-2,7.623117E-3,4.5438646E-3,4.418998E-2],"categories":[],"categories_nodes":[],"categories_segments":[],"categories_sizes":[],"default_left":[0,0,0,0,0,0,0,0,0,0,0,0,0,0,0,0,0,0,0,0,0,0,0,0,0,0,0,0,0,0,0,0,0,0,0,0,0,0,0,0,0,0,0,0,0,0,0,0,0,0,0,0,0,0,0,0,0,0,0,0,0,0,0,0,0,0,0,0,0,0,0,0,0,0,0,0,0,0,0,0,0,0,0,0,0,0,0,0,0,0,0,0,0,0,0,0,0,0,0],"id":6,"left_children":[1,3,5,7,9,11,13,15,17,19,21,23,25,27,29,31,33,-1,35,37,39,41,43,45,47,49,51,53,55,57,-1,59,61,63,-1,65,-1,-1,67,69,71,-1,-1,73,75,77,79,81,83,85,87,89,91,93,95,-1,-1,97,-1,-1,-1,-1,-1,-1,-1,-1,-1,-1,-1,-1,-1,-1,-1,-1,-1,-1,-1,-1,-1,-1,-1,-1,-1,-1,-1,-1,-1,-1,-1,-1,-1,-1,-1,-1,-1,-1,-1,-1,-1],"loss_changes":[8.6612915E1,1.9524208E1,9.092335E0,9.760025E0,1.1283052E1,6.7992725E0,3.2801933E0,6.412552E0,5.1848774E0,8.065786E0,8.7287E0,6.9732103E0,1.1568769E1,8.02077E0,7.338093E0,3.5585518E0,3.4563522E0,0E0,3.5025842E0,1.1198215E0,1.0932057E1,1.2871256E0,7.88986E0,3.8754725E0,8.231095E0,5.126755E0,3.7622414E0,3.7024736E0,2.7727568E0,1.8849373E0,0E0,4.0427246E0,5.25445E0,1.1616936E0,0E0,1.6833105E0,0E0,0E0,1.3568244E0,5.667756E0,3.6122217E0,0E0,0E0,4.6771917E0,7.2028375E0,8.949689E-1,8.564739E-1,2.1666322E0,3.8182945E0,2.888028E0,5.3842077E0,4.043596E0,3.6844902E0,5.197007E0,3.497837E0,0E0,0E0,3.5322456E0,0E0,0E0,0E0,0E0,0E0,0E0,0E0,0E0,0E0,0E0,0E0,0E0,0E0,0E0,0E0,0E0,0E0,0E0,0E0,0E0,0E0,0E0,0E0,0E0,0E0,0E0,0E0,0E0,0E0,0E0,0E0,0E0,0E0,0E0,0E0,0E0,0E0,0E0,0E0,0E0,0E0],"parents":[2147483647,0,0,1,1,2,2,3,3,4,4,5,5,6,6,7,7,8,8,9,9,10,10,11,11,12,12,13,13,14,14,15,15,16,16,18,18,19,19,20,20,21,21,22,22,23,23,24,24,25,25,26,26,27,27,28,28,29,29,31,31,32,32,33,33,35,35,38,38,39,39,40,40,43,43,44,44,45,45,46,46,47,47,48,48,49,49,50,50,51,51,52,52,53,53,54,54,57,57],"right_children":[2,4,6,8,10,12,14,16,18,20,22,24,26,28,30,32,34,-1,36,38,40,42,44,46,48,50,52,54,56,58,-1,60,62,64,-1,66,-1,-1,68,70,72,-1,-1,74,76,78,80,82,84,86,88,90,92,94,96,-1,-1,98,-1,-1,-1,-1,-1,-1,-1,-1,-1,-1,-1,-1,-1,-1,-1,-1,-1,-1,-1,-1,-1,-1,-1,-1,-1,-1,-1,-1,-1,-1,-1,-1,-1,-1,-1,-1,-1,-1,-1,-1,-1],"split_conditions":[2.4427897E-1,-4.4743472E-1,1.1178081E0,2.1333575E0,-3.2694232E-1,1.9695659E-1,3.9815152E-1,6.0060203E-1,-6.2796444E-1,-5.4546636E-1,-3.9682153E-1,-5.30765E-1,4.551673E-1,1.2808516E0,1.4206514E0,2.3865148E-2,6.62192E-1,-2.687606E-2,2.4846825E-1,1.044859E0,-2.3300861E-1,2.9259822E-1,-2.9981288E-1,-8.97687E-2,-1.0711311E-1,-5.9151378E-2,-6.6581324E-2,-7.996873E-1,3.7740332E-1,2.0733144E0,-2.2802101E-2,-5.2813315E-1,-9.68153E-2,1.0308914E0,1.4291581E-3,-1.1094778E-1,-1.2306519E-2,-4.417275E-2,-8.796941E-1,-6.5929645E-1,-3.783917E-1,4.4589438E-2,9.208614E-3,8.0985326E-1,-7.92387E-1,-4.0791166E-1,6.62192E-1,4.4155174E-1,7.2510555E-2,-1.3493869E-1,-1.3666283E0,6.888123E-1,4.7827652E-1,5.4313555E-2,-4.226358E-1,9.99005E-3,-3.4343615E-2,-6.1056614E-1,6.4403163E-3,1.26197655E-2,-2.3957418E-2,2.3940057E-2,-1.6984995E-2,-4.8301533E-2,-1.0811684E-2,5.1559666E-3,4.390582E-2,6.3970457E-3,-2.7303895E-2,1.2656441E-2,-3.5773184E-2,-9.260249E-3,3.0266281E-2,-3.2401454E-2,6.043783E-3,-1.5395445E-2,5.4831114E-3,1.7929086E-2,-9.281981E-3,-4.6088237E-2,-8.328332E-3,-3.2827158E-2,-3.0968462E-3,1.9282676E-2,-1.9222535E-2,3.895036E-2,-8.708277E-3,3.0588584E-2,-2.1964625E-2,-1.4412613E-2,2.843176E-2,4.47062E-2,7.10649E-3,-2.5737556E-2,2.8080339E-2,4.0632397E-2,7.623117E-3,4.5438646E-3,4.418998E-2],"split_indices":[17,17,31,2,30,27,16,9,23,13,17,34,17,12,23,16,0,0,19,4,22,8,17,11,8,23,8,13,27,12,0,13,21,19,0,21,0,0,0,4,4,0,0,27,23,25,0,34,27,15,12,28,9,12,15,0,0,25,0,0,0,0,0,0,0,0,0,0,0,0,0,0,0,0,0,0,0,0,0,0,0,0,0,0,0,0,0,0,0,0,0,0,0,0,0,0,0,0,0],"split_type":[0,0,0,0,0,0,0,0,0,0,0,0,0,0,0,0,0,0,0,0,0,0,0,0,0,0,0,0,0,0,0,0,0,0,0,0,0,0,0,0,0,0,0,0,0,0,0,0,0,0,0,0,0,0,0,0,0,0,0,0,0,0,0,0,0,0,0,0,0,0,0,0,0,0,0,0,0,0,0,0,0,0,0,0,0,0,0,0,0,0,0,0,0,0,0,0,0,0,0],"sum_hessian":[3.791518E2,2.4448872E2,1.3466307E2,1.0246857E2,1.4202016E2,8.200028E1,5.2662792E1,9.4482635E1,7.985928E0,3.071065E1,1.1130952E2,4.345765E1,3.8542633E1,2.4052246E1,2.8610544E1,7.831031E1,1.6172323E1,1.7475997E0,6.2383285E0,1.1745313E1,1.8965336E1,5.2428684E0,1.0606664E2,6.459471E0,3.6998177E1,1.3409772E1,2.5132862E1,2.0316446E1,3.7358012E0,2.7370386E1,1.2401589E0,6.757504E1,1.073527E1,1.4679497E1,1.4928277E0,4.7411017E0,1.4972267E0,8.746323E0,2.9989896E0,1.0982648E1,7.9826884E0,3.246258E0,1.9966104E0,1.3239412E1,9.282723E1,2.4814563E0,3.9780152E0,8.457439E0,2.854074E1,3.7176795E0,9.692092E0,6.18841E0,1.8944452E1,4.461562E0,1.5854883E1,1.4938811E0,2.2419202E0,2.539567E1,1.974717E0,2.246477E0,6.532857E1,3.2471223E0,7.4881477E0,1.31825E1,1.4969963E0,1.745801E0,2.9953008E0,1.249918E0,1.7490716E0,2.2445161E0,8.7381315E0,2.4986491E0,5.4840393E0,9.744292E0,3.4951196E0,1.747543E1,7.535181E1,1.2411768E0,1.2402793E0,2.7394373E0,1.2385777E0,2.9851656E0,5.472274E0,2.6802742E1,1.7379977E0,2.4742675E0,1.243412E0,1.2395903E0,8.452502E0,2.7365932E0,3.4518163E0,1.5724542E1,3.2199104E0,2.2400162E0,2.2215457E0,1.138388E1,4.4710045E0,2.4761531E0,2.2919516E1],"tree_param":{"num_deleted":"0","num_feature":"35","num_nodes":"99","size_leaf_vector":"1"}},{"base_weights":[-1.35131255E-2,-3.5859105E-1,5.9919024E-1,-6.979267E-1,-1.154386E-1,7.9876786E-1,2.8548598E-1,-5.424306E-2,-8.1861824E-1,-2.9166043E-1,2.0059058E-1,1.0091822E0,3.3633927E-1,3.501244E-2,1.7127588E-1,-4.6544158E-1,5.414748E-1,3.068626E-2,-8.746198E-1,-4.0705448E-1,3.001979E-1,3.4818617E-1,-6.589967E-1,-2.3445831E-1,1.1124219E0,-8.492557E-1,5.5582625E-1,2.5439933E-1,-3.317471E-2,3.4914005E-1,-8.658039E-1,-2.2254004E-1,3.794721E-2,-7.153074E-1,-1.3682213E0,6.693408E-3,-6.041403E-1,-3.1785926E-1,7.6847005E-1,-6.682721E-2,6.314589E-1,-1.0572221E0,1.45952795E-2,-8.571933E-1,2.9432531E-2,1.1498575E0,-3.2764466E-3,1.609588E-2,-4.4736233E-2,-8.119513E-2,8.778292E-1,4.9109384E-1,-1.6246137E-1,3.3189252E-2,-1.0096755E-2,-4.1029096E-2,1.0330004E-2,3.216293E-2,-3.1526443E-2,-3.045905E-2,-9.5685795E-3,-4.3082073E-2,-6.3752444E-3,1.9669913E-2,-1.0212066E-2,-2.033247E-2,8.599992E-3,6.462632E-3,-3.2408435E-2,3.2364257E-2,-2.025758E-2,7.4787713E-3,-3.0502167E-2,2.3078516E-2,-1.2794569E-2,-4.221619E-2,5.733219E-3,-3.602579E-3,-3.7383046E-2,1.775308E-2,3.7121776E-2,2.3886895E-2,-2.3485275E-2,3.4927394E-2,-3.7363127E-3,6.8667554E-4,3.0663986E-2,-3.0552302E-2,9.482692E-3],"categories":[],"categories_nodes":[],"categories_segments":[],"categories_sizes":[],"default_left":[0,0,0,0,0,0,0,0,0,0,0,0,0,0,0,0,0,0,0,0,0,0,0,0,0,0,0,0,0,0,0,0,0,0,0,0,0,0,0,0,0,0,0,0,0,0,0,0,0,0,0,0,0,0,0,0,0,0,0,0,0,0,0,0,0,0,0,0,0,0,0,0,0,0,0,0,0,0,0,0,0,0,0,0,0,0,0,0,0],"id":7,"left_children":[1,3,5,7,9,11,13,15,17,19,21,23,25,-1,27,29,31,-1,33,35,37,39,41,43,45,47,49,51,-1,53,55,57,-1,59,61,63,65,67,69,71,73,75,-1,77,-1,79,-1,-1,-1,81,83,85,87,-1,-1,-1,-1,-1,-1,-1,-1,-1,-1,-1,-1,-1,-1,-1,-1,-1,-1,-1,-1,-1,-1,-1,-1,-1,-1,-1,-1,-1,-1,-1,-1,-1,-1,-1,-1],"loss_changes":[8.101145E1,2.0141596E1,8.415428E0,7.8882446E0,8.076726E0,7.8164024E0,5.3616705E0,4.4637694E0,9.754879E0,6.4629884E0,6.843869E0,7.593029E0,7.683445E0,0E0,5.5969152E0,3.7951174E0,4.417838E0,0E0,5.6204987E0,6.374092E0,4.794916E0,5.350023E0,4.1571827E0,4.7796564E0,2.545044E0,5.0030527E0,4.991742E0,4.798711E0,0E0,2.574693E0,5.006194E0,5.941898E0,0E0,7.468998E0,1.2145424E0,6.123488E0,3.6645927E0,3.2760482E0,4.8676157E0,6.0249243E0,4.254676E0,2.9955206E0,0E0,9.8966575E-1,0E0,1.7796402E0,0E0,0E0,0E0,6.1453576E0,4.743827E0,7.623051E0,7.7245984E0,0E0,0E0,0E0,0E0,0E0,0E0,0E0,0E0,0E0,0E0,0E0,0E0,0E0,0E0,0E0,0E0,0E0,0E0,0E0,0E0,0E0,0E0,0E0,0E0,0E0,0E0,0E0,0E0,0E0,0E0,0E0,0E0,0E0,0E0,0E0,0E0],"parents":[2147483647,0,0,1,1,2,2,3,3,4,4,5,5,6,6,7,7,8,8,9,9,10,10,11,11,12,12,14,14,15,15,16,16,18,18,19,19,20,20,21,21,22,22,23,23,24,24,25,25,26,26,27,27,29,29,30,30,31,31,33,33,34,34,35,35,36,36,37,37,38,38,39,39,40,40,41,41,43,43,45,45,49,49,50,50,51,51,52,52],"right_children":[2,4,6,8,10,12,14,16,18,20,22,24,26,-1,28,30,32,-1,34,36,38,40,42,44,46,48,50,52,-1,54,56,58,-1,60,62,64,66,68,70,72,74,76,-1,78,-1,80,-1,-1,-1,82,84,86,88,-1,-1,-1,-1,-1,-1,-1,-1,-1,-1,-1,-1,-1,-1,-1,-1,-1,-1,-1,-1,-1,-1,-1,-1,-1,-1,-1,-1,-1,-1,-1,-1,-1,-1,-1,-1],"split_conditions":[2.4427897E-1,-4.60088E-1,2.57571E-1,-1.2979108E-1,1.8822478E-1,2.9419573E-2,-1.5582197E0,-2.1827243E-1,-7.312965E-1,9.173293E-1,7.7117157E-1,-1.197808E0,-9.883919E-1,3.501244E-2,1.13271E0,3.847511E-1,4.6852845E-1,3.068626E-2,1.0203034E0,-4.3059653E-1,6.2430847E-2,8.542853E-3,1.445812E0,-7.7972E-2,9.884413E-1,-8.578284E-2,7.559332E-2,4.620411E-1,-3.317471E-2,5.340448E-1,1.4937828E0,-1.615049E-1,3.794721E-2,-5.0012334E-3,-5.357717E-1,6.335274E-2,1.6348461E0,2.824061E-1,7.4494106E-1,1.310805E0,1.143921E0,5.1614636E-1,1.45952795E-2,8.075878E-2,2.9432531E-2,-5.3464353E-1,-3.2764466E-3,1.609588E-2,-4.4736233E-2,3.539409E-1,9.794109E-1,-6.8931615E-1,-8.0266476E-2,3.3189252E-2,-1.0096755E-2,-4.1029096E-2,1.0330004E-2,3.216293E-2,-3.1526443E-2,-3.045905E-2,-9.5685795E-3,-4.3082073E-2,-6.3752444E-3,1.9669913E-2,-1.0212066E-2,-2.033247E-2,8.599992E-3,6.462632E-3,-3.2408435E-2,3.2364257E-2,-2.025758E-2,7.4787713E-3,-3.0502167E-2,2.3078516E-2,-1.2794569E-2,-4.221619E-2,5.733219E-3,-3.602579E-3,-3.7383046E-2,1.775308E-2,3.7121776E-2,2.3886895E-2,-2.3485275E-2,3.4927394E-2,-3.7363127E-3,6.8667554E-4,3.0663986E-2,-3.0552302E-2,9.482692E-3],"split_indices":[17,17,9,21,24,13,33,28,25,12,12,5,27,0,21,13,13,0,13,12,34,26,12,21,20,20,18,28,0,33,32,8,0,22,18,21,5,21,9,24,20,32,0,25,0,23,0,0,0,17,12,33,12,0,0,0,0,0,0,0,0,0,0,0,0,0,0,0,0,0,0,0,0,0,0,0,0,0,0,0,0,0,0,0,0,0,0,0,0],"split_type":[0,0,0,0,0,0,0,0,0,0,0,0,0,0,0,0,0,0,0,0,0,0,0,0,0,0,0,0,0,0,0,0,0,0,0,0,0,0,0,0,0,0,0,0,0,0,0,0,0,0,0,0,0,0,0,0,0,0,0,0,0,0,0,0,0,0,0,0,0,0,0,0,0,0,0,0,0,0,0,0,0,0,0,0,0,0,0,0,0],"sum_hessian":[3.8114267E2,2.4408653E2,1.3705615E2,1.0111017E2,1.4297636E2,8.282005E1,5.42361E1,1.6193718E1,8.491645E1,9.184151E1,5.1134857E1,5.610761E1,2.6712444E1,5.163096E0,4.9073E1,9.710006E0,6.483713E0,1.9966205E0,8.291983E1,7.71181E1,1.4723403E1,4.414916E1,6.9857E0,4.2032766E0,5.190433E1,3.7245271E0,2.2987917E1,4.6826008E1,2.2469962E0,3.2419128E0,6.468093E0,3.4901543E0,2.993559E0,6.453877E1,1.8381052E1,2.5193888E1,5.1924217E1,6.4851165E0,8.238286E0,1.8219894E1,2.5929266E1,5.2408376E0,1.7448628E0,2.9743123E0,1.2289646E0,5.0418083E1,1.4862479E0,1.2311215E0,2.4934056E0,7.969542E0,1.5018375E1,2.9753702E1,1.7072304E1,1.2491554E0,1.9927573E0,4.480091E0,1.9880017E0,1.2469659E0,2.2431884E0,3.5845966E1,2.869281E1,1.7132671E1,1.2483821E0,8.469439E0,1.672445E1,4.8182034E1,3.7421834E0,4.238162E0,2.2469547E0,6.988761E0,1.2495251E0,1.4223906E1,3.9959881E0,2.3182047E1,2.7472184E0,3.9938438E0,1.2469935E0,1.4793128E0,1.4949995E0,7.887965E0,4.2530117E1,3.4813008E0,4.488241E0,1.155513E1,3.4632456E0,1.6366684E1,1.3387018E1,5.7175813E0,1.1354722E1],"tree_param":{"num_deleted":"0","num_feature":"35","num_nodes":"89","size_leaf_vector":"1"}},{"base_weights":[1.11113695E-4,-4.2214248E-1,4.3415377E-1,-6.592867E-1,-1.8088926E-1,3.1138986E-1,1.0115412E0,-9.167089E-1,-3.136985E-1,-4.7685277E-1,1.99054E-2,5.060315E-1,-5.117865E-2,4.2255923E-1,1.4297545E0,-1.0171888E0,-1.8743086E-1,7.725157E-1,-4.9136692E-1,-6.497836E-1,3.536615E-1,-2.771791E-1,5.1219577E-1,3.311929E-1,8.620393E-1,-5.42589E-1,2.0442657E-1,6.3784105E-1,-2.7731847E-2,4.567151E-2,1.4823873E-3,2.0400584E-2,-1.0761656E0,-9.284039E-1,7.840319E-1,-9.0294555E-3,3.9497815E-2,-8.639274E-2,-1.0273291E0,1.8124056E-1,-8.679254E-1,9.4474083E-1,-5.908534E-1,-4.5134075E-2,-8.7437457E-1,8.5128254E-1,-1.5607353E-1,8.86878E-1,1.5157846E-1,-3.449335E-1,1.0141189E0,-8.534812E-1,5.3071135E-1,-2.6445564E-2,8.348058E-1,9.171844E-1,-4.4048727E-1,1.2069077E-2,-3.4494575E-2,-3.8893692E-2,-4.682375E-3,-4.7141146E-3,3.8060136E-2,1.2034403E-2,-1.7303143E-2,1.2735716E-2,-3.611676E-2,-1.7135132E-2,3.411774E-2,-1.2015303E-2,-3.816638E-2,-4.8990233E-4,4.0843364E-2,-3.344867E-2,5.8966996E-3,-2.5284333E-2,7.333101E-3,-4.692095E-2,8.701222E-3,3.7055906E-2,-5.4768366E-3,-1.7793091E-2,2.1981323E-2,3.3329565E-2,6.1712023E-3,-2.3892872E-2,9.3652075E-3,2.2781556E-2,-3.9376162E-2,7.4001346E-3,3.707925E-2,-8.490045E-3,-3.8692493E-2,3.012822E-2,-6.659396E-3,7.02731E-3,-1.9481571E-2,-8.307858E-3,3.84331E-2,-1.4103895E-2,3.808364E-2,-2.3702685E-2,3.206164E-3],"categories":[],"categories_nodes":[],"categories_segments":[],"categories_sizes":[],"default_left":[0,0,0,0,0,0,0,0,0,0,0,0,0,0,0,0,0,0,0,0,0,0,0,0,0,0,0,0,0,0,0,0,0,0,0,0,0,0,0,0,0,0,0,0,0,0,0,0,0,0,0,0,0,0,0,0,0,0,0,0,0,0,0,0,0,0,0,0,0,0,0,0,0,0,0,0,0,0,0,0,0,0,0,0,0,0,0,0,0,0,0,0,0,0,0,0,0,0,0,0,0,0,0],"id":8,"left_children":[1,3,5,7,9,11,13,15,17,19,21,23,25,27,29,31,33,35,37,39,41,43,45,47,49,51,53,55,-1,-1,-1,-1,57,59,61,-1,-1,63,65,67,69,71,73,75,77,79,81,83,85,87,89,91,93,95,97,99,101,-1,-1,-1,-1,-1,-1,-1,-1,-1,-1,-1,-1,-1,-1,-1,-1,-1,-1,-1,-1,-1,-1,-1,-1,-1,-1,-1,-1,-1,-1,-1,-1,-1,-1,-1,-1,-1,-1,-1,-1,-1,-1,-1,-1,-1,-1],"loss_changes":[7.053405E1,1.1041332E1,1.31368065E1,8.430462E0,5.8380537E0,1.1172283E1,7.482647E0,3.8866997E0,8.746444E0,5.9292994E0,8.828413E0,6.117216E0,7.1550827E0,4.9541984E0,2.3258438E0,5.604332E0,6.460556E0,4.182952E0,8.131272E0,6.1753874E0,4.737848E0,5.1834083E0,5.277668E0,6.9130282E0,6.454052E0,6.94731E0,5.4969106E0,4.4913545E0,0E0,0E0,0E0,0E0,5.627548E0,1.2120438E0,2.0184636E0,0E0,0E0,5.6497555E0,4.6658573E0,6.2096567E0,4.4921017E0,2.0204973E0,1.6622907E0,6.71915E0,8.879343E0,6.26511E0,3.7313483E0,2.373004E0,8.556279E0,5.7704754E0,4.7669086E0,3.4864101E0,2.0008729E0,4.7808747E0,5.3734045E0,6.0223207E0,7.4795943E-1,0E0,0E0,0E0,0E0,0E0,0E0,0E0,0E0,0E0,0E0,0E0,0E0,0E0,0E0,0E0,0E0,0E0,0E0,0E0,0E0,0E0,0E0,0E0,0E0,0E0,0E0,0E0,0E0,0E0,0E0,0E0,0E0,0E0,0E0,0E0,0E0,0E0,0E0,0E0,0E0,0E0,0E0,0E0,0E0,0E0,0E0],"parents":[2147483647,0,0,1,1,2,2,3,3,4,4,5,5,6,6,7,7,8,8,9,9,10,10,11,11,12,12,13,13,14,14,15,15,16,16,17,17,18,18,19,19,20,20,21,21,22,22,23,23,24,24,25,25,26,26,27,27,32,32,33,33,34,34,37,37,38,38,39,39,40,40,41,41,42,42,43,43,44,44,45,45,46,46,47,47,48,48,49,49,50,50,51,51,52,52,53,53,54,54,55,55,56,56],"right_children":[2,4,6,8,10,12,14,16,18,20,22,24,26,28,30,32,34,36,38,40,42,44,46,48,50,52,54,56,-1,-1,-1,-1,58,60,62,-1,-1,64,66,68,70,72,74,76,78,80,82,84,86,88,90,92,94,96,98,100,102,-1,-1,-1,-1,-1,-1,-1,-1,-1,-1,-1,-1,-1,-1,-1,-1,-1,-1,-1,-1,-1,-1,-1,-1,-1,-1,-1,-1,-1,-1,-1,-1,-1,-1,-1,-1,-1,-1,-1,-1,-1,-1,-1,-1,-1,-1],"split_conditions":[-2.1440312E-2,-4.9383014E-1,1.0878322E0,1.252887E-1,-3.762211E-1,2.1174373E-1,1.7517853E-1,3.4523916E-1,2.2300614E-1,5.854678E-1,2.056409E-1,5.5785006E-1,2.4849674E-1,6.006595E-2,1.8027716E0,-5.9933776E-1,-4.0313762E-1,-4.386093E-1,-1.1425463E-1,-9.6827227E-1,1.8984045E-1,3.2074577E-1,3.7995768E-1,-7.2482936E-2,-1.197808E0,-2.734497E-2,8.7440675E-1,9.266515E-1,-2.7731847E-2,4.567151E-2,1.4823873E-3,2.0400584E-2,-1.3783908E0,-4.2838472E-1,-2.093241E-1,-9.0294555E-3,3.9497815E-2,6.963035E-1,5.4317796E-1,5.3515024E-2,1.0968315E-1,-3.541064E-1,7.671941E-2,-5.7440144E-1,4.2085147E-1,6.5630525E-1,7.224736E-1,-9.991737E-2,-6.8931615E-1,1.0058558E0,-1.0265419E-1,-2.1827243E-1,4.2085147E-1,4.620411E-1,-7.0406127E-1,-4.4996228E-2,-9.0133834E-1,1.2069077E-2,-3.4494575E-2,-3.8893692E-2,-4.682375E-3,-4.7141146E-3,3.8060136E-2,1.2034403E-2,-1.7303143E-2,1.2735716E-2,-3.611676E-2,-1.7135132E-2,3.411774E-2,-1.2015303E-2,-3.816638E-2,-4.8990233E-4,4.0843364E-2,-3.344867E-2,5.8966996E-3,-2.5284333E-2,7.333101E-3,-4.692095E-2,8.701222E-3,3.7055906E-2,-5.4768366E-3,-1.7793091E-2,2.1981323E-2,3.3329565E-2,6.1712023E-3,-2.3892872E-2,9.3652075E-3,2.2781556E-2,-3.9376162E-2,7.4001346E-3,3.707925E-2,-8.490045E-3,-3.8692493E-2,3.012822E-2,-6.659396E-3,7.02731E-3,-1.9481571E-2,-8.307858E-3,3.84331E-2,-1.4103895E-2,3.808364E-2,-2.3702685E-2,3.206164E-3],"split_indices":[17,17,17,22,0,21,27,23,22,11,13,27,17,27,22,3,16,14,14,11,20,33,11,23,5,33,19,34,0,0,0,0,16,27,14,0,0,23,33,14,33,12,12,10,5,13,28,20,33,27,16,28,5,28,33,21,24,0,0,0,0,0,0,0,0,0,0,0,0,0,0,0,0,0,0,0,0,0,0,0,0,0,0,0,0,0,0,0,0,0,0,0,0,0,0,0,0,0,0,0,0,0,0],"split_type":[0,0,0,0,0,0,0,0,0,0,0,0,0,0,0,0,0,0,0,0,0,0,0,0,0,0,0,0,0,0,0,0,0,0,0,0,0,0,0,0,0,0,0,0,0,0,0,0,0,0,0,0,0,0,0,0,0,0,0,0,0,0,0,0,0,0,0,0,0,0,0,0,0,0,0,0,0,0,0,0,0,0,0,0,0,0,0,0,0,0,0,0,0,0,0,0,0,0,0,0,0,0,0],"sum_hessian":[3.8285138E2,1.9407504E2,1.8877634E2,9.699717E1,9.707787E1,1.5694588E2,3.1830463E1,5.4642437E1,4.2354736E1,3.8684135E1,5.8393738E1,1.0186493E2,5.508095E1,1.4051588E1,1.7778875E1,4.7678505E1,6.9639306E0,5.483303E0,3.6871433E1,3.2197533E1,6.486602E0,3.668952E1,2.1704216E1,6.960942E1,3.225551E1,1.8462793E1,3.6618156E1,1.2569138E1,1.4824513E0,1.65644E1,1.2144747E0,1.2475234E0,4.643098E1,3.9757743E0,2.988156E0,1.9946156E0,3.4886878E0,2.1663578E1,1.5207854E1,6.7296586E0,2.5467876E1,3.9896388E0,2.496963E0,2.7197353E1,9.492169E0,1.4216669E1,7.4875474E0,1.604189E1,5.356753E1,3.4675279E0,2.8787981E1,1.4474823E1,3.9879699E0,2.7503307E1,9.114852E0,1.01017065E1,2.4674306E0,1.9915721E0,4.443941E1,2.2329953E0,1.742779E0,1.2453848E0,1.7427713E0,1.0954484E1,1.0709094E1,1.4966577E0,1.3711197E1,3.9911036E0,2.738555E0,1.2735005E1,1.273287E1,1.497251E0,2.4923878E0,1.2493883E0,1.2475748E0,6.734728E0,2.0462626E1,5.7458434E0,3.7463255E0,1.0224918E1,3.9917512E0,5.2424374E0,2.24511E0,1.159583E1,4.4460588E0,7.18639E0,4.638114E1,1.7198596E0,1.7476684E0,6.9294333E0,2.1858547E1,6.98703E0,7.4877934E0,2.242706E0,1.7452639E0,1.982914E1,7.674166E0,2.7196524E0,6.3951993E0,1.9778699E0,8.1238365E0,1.2351043E0,1.2323263E0],"tree_param":{"num_deleted":"0","num_feature":"35","num_nodes":"103","size_leaf_vector":"1"}},{"base_weights":[1.4547261E-2,-4.3429652E-1,3.7699533E-1,-7.301471E-1,-2.4428122E-1,1.1557932E0,2.984241E-1,-8.092981E-1,3.8959646E-1,4.1859472E-1,-3.625285E-1,1.9511722E-1,1.3045913E0,-1.4021115E-1,3.8870785E-1,-8.573533E-1,1.5869519E-2,3.488155E-2,-2.753925E-1,-6.1556625E-1,7.509594E-1,-6.452293E-1,-5.257299E-2,-1.1376232E-2,1.8999413E-2,1.4567224E0,3.8574612E-1,8.133024E-1,-4.9537545E-1,2.1635443E-1,6.889503E-1,-1.120964E0,-4.9453646E-1,-3.2341436E-2,1.9569734E-2,-3.5673656E-2,5.422878E-3,1.2994468E0,7.025495E-2,5.7730263E-1,-7.90277E-1,4.0193833E-2,-1.6999501E-1,7.630475E-3,4.752152E-2,-7.2895833E-3,2.7240187E-2,3.7683155E-2,-1.964644E-1,5.534892E-1,-6.495113E-1,2.9203126E-1,-6.286573E-1,7.939917E-1,-1.261883E-2,1.3864355E-2,-3.6263775E-2,5.123367E-3,-2.4316883E-2,1.1900772E-2,4.7386646E-2,2.3733031E-2,-8.610183E-3,3.1937514E-2,-1.8049464E-2,-3.1825867E-2,-9.9020405E-3,-8.396229E-3,3.2630913E-2,-2.0831672E-2,9.902845E-3,-8.792258E-3,3.2833297E-2,-2.5782602E-2,7.510483E-3,-3.1538368E-3,1.418544E-2,-3.241693E-2,8.002488E-3,2.7509693E-2,2.3848845E-3,-3.953183E-2,2.8339127E-2],"categories":[],"categories_nodes":[],"categories_segments":[],"categories_sizes":[],"default_left":[0,0,0,0,0,0,0,0,0,0,0,0,0,0,0,0,0,0,0,0,0,0,0,0,0,0,0,0,0,0,0,0,0,0,0,0,0,0,0,0,0,0,0,0,0,0,0,0,0,0,0,0,0,0,0,0,0,0,0,0,0,0,0,0,0,0,0,0,0,0,0,0,0,0,0,0,0,0,0,0,0,0,0],"id":9,"left_children":[1,3,5,7,9,11,13,15,17,19,21,23,25,27,29,31,-1,-1,33,35,37,39,41,-1,-1,43,45,47,49,51,53,55,57,-1,-1,-1,-1,59,61,63,65,-1,67,-1,-1,-1,-1,-1,69,71,73,75,77,79,81,-1,-1,-1,-1,-1,-1,-1,-1,-1,-1,-1,-1,-1,-1,-1,-1,-1,-1,-1,-1,-1,-1,-1,-1,-1,-1,-1,-1],"loss_changes":[6.123501E1,9.275896E0,1.2396578E1,6.0999985E0,8.296406E0,2.4234333E0,7.598238E0,4.3948364E0,2.8826084E0,6.028385E0,7.7396317E0,1.1684084E0,1.6810188E0,1.1663359E1,8.039509E0,5.1403847E0,0E0,0E0,3.3004744E0,2.2648764E0,4.652459E0,8.667868E0,7.3243976E0,0E0,0E0,1.6495438E0,1.4156909E0,4.4508905E0,4.376641E0,6.705521E0,4.229101E0,5.2438393E0,5.7829213E0,0E0,0E0,0E0,0E0,1.138175E0,1.9593643E0,3.7940595E0,4.8573704E0,0E0,5.958987E0,0E0,0E0,0E0,0E0,0E0,1.207436E0,2.0259905E0,4.3942366E0,6.8208246E0,3.8087003E0,4.3046207E0,1.1789031E1,0E0,0E0,0E0,0E0,0E0,0E0,0E0,0E0,0E0,0E0,0E0,0E0,0E0,0E0,0E0,0E0,0E0,0E0,0E0,0E0,0E0,0E0,0E0,0E0,0E0,0E0,0E0,0E0],"parents":[2147483647,0,0,1,1,2,2,3,3,4,4,5,5,6,6,7,7,8,8,9,9,10,10,11,11,12,12,13,13,14,14,15,15,18,18,19,19,20,20,21,21,22,22,25,25,26,26,27,27,28,28,29,29,30,30,31,31,32,32,37,37,38,38,39,39,40,40,42,42,48,48,49,49,50,50,51,51,52,52,53,53,54,54],"right_children":[2,4,6,8,10,12,14,16,18,20,22,24,26,28,30,32,-1,-1,34,36,38,40,42,-1,-1,44,46,48,50,52,54,56,58,-1,-1,-1,-1,60,62,64,66,-1,68,-1,-1,-1,-1,-1,70,72,74,76,78,80,82,-1,-1,-1,-1,-1,-1,-1,-1,-1,-1,-1,-1,-1,-1,-1,-1,-1,-1,-1,-1,-1,-1,-1,-1,-1,-1,-1,-1],"split_conditions":[-8.048904E-2,-3.249459E-1,-1.5531074E0,1.1240795E0,-2.1801631E-1,-1.13622524E-1,-8.0571854E-1,1.6959511E0,-1.822609E-1,-1.1287519E0,-5.5287886E-1,1.6159002E0,1.8315264E0,-8.796941E-1,4.1923806E-1,-1.00273825E-1,1.5869519E-2,3.488155E-2,8.519446E-1,3.7959647E-1,2.9507625E-1,-5.418838E-1,-1.5470232E0,-1.1376232E-2,1.8999413E-2,-5.2711105E-1,1.6125302E0,4.729456E-1,-6.207991E-1,3.3489186E-1,6.197335E-1,-1.141167E0,1.5366293E-1,-3.2341436E-2,1.9569734E-2,-3.5673656E-2,5.422878E-3,-5.866341E-1,-3.4109157E-1,7.581823E-1,2.13398E-1,4.0193833E-2,1.445812E0,7.630475E-3,4.752152E-2,-7.2895833E-3,2.7240187E-2,3.7683155E-2,8.7104094E-1,-8.738722E-2,9.444282E-1,-4.222843E-1,4.4094786E-1,6.515924E-1,1.2773444E-1,1.3864355E-2,-3.6263775E-2,5.123367E-3,-2.4316883E-2,1.1900772E-2,4.7386646E-2,2.3733031E-2,-8.610183E-3,3.1937514E-2,-1.8049464E-2,-3.1825867E-2,-9.9020405E-3,-8.396229E-3,3.2630913E-2,-2.0831672E-2,9.902845E-3,-8.792258E-3,3.2833297E-2,-2.5782602E-2,7.510483E-3,-3.1538368E-3,1.418544E-2,-3.241693E-2,8.002488E-3,2.7509693E-2,2.3848845E-3,-3.953183E-2,2.8339127E-2],"split_indices":[17,11,32,27,10,8,23,19,25,22,17,16,28,0,16,14,0,0,32,15,0,9,12,0,0,10,27,9,26,16,25,16,33,0,0,0,0,12,26,32,20,0,12,0,0,0,0,0,34,8,17,25,26,4,9,0,0,0,0,0,0,0,0,0,0,0,0,0,0,0,0,0,0,0,0,0,0,0,0,0,0,0,0],"split_type":[0,0,0,0,0,0,0,0,0,0,0,0,0,0,0,0,0,0,0,0,0,0,0,0,0,0,0,0,0,0,0,0,0,0,0,0,0,0,0,0,0,0,0,0,0,0,0,0,0,0,0,0,0,0,0,0,0,0,0,0,0,0,0,0,0,0,0,0,0,0,0,0,0,0,0,0,0,0,0,0,0,0,0],"sum_hessian":[3.7440152E2,1.671769E2,2.0722462E2,6.4268845E1,1.0290806E2,1.77341E1,1.8949052E2,6.028476E1,3.9840825E0,1.5193827E1,8.771423E1,2.688406E0,1.5045694E1,3.225066E1,1.5723985E2,5.854199E1,1.7427714E0,1.4961582E0,2.4879243E0,3.4881818E0,1.1705646E1,4.530828E1,4.2405952E1,1.221741E0,1.466665E0,1.24062395E1,2.6394548E0,8.402485E0,2.3848177E1,1.0098835E2,5.625151E1,3.2696312E1,2.5845676E1,1.246991E0,1.2409333E0,1.7409838E0,1.7471981E0,5.979004E0,5.726641E0,4.489397E0,4.0818882E1,2.4884396E0,3.9917515E1,1.4750266E0,1.0931213E1,1.4402843E0,1.1991707E0,5.6714745E0,2.7310104E0,2.7236102E0,2.1124567E1,9.328813E1,7.7002144E0,4.881154E1,7.439971E0,1.4945798E0,3.120173E1,8.47122E0,1.7374456E1,1.9880321E0,3.9909718E0,1.4952743E0,4.231367E0,3.2451344E0,1.2442626E0,2.4883287E1,1.5935595E1,3.7425293E1,2.4922214E0,1.2398523E0,1.491158E0,1.240507E0,1.483103E0,1.7165373E1,3.9591932E0,2.9315659E1,6.3972477E1,4.980033E0,2.7201817E0,4.1401066E1,7.410473E0,2.9886813E0,4.4512897E0],"tree_param":{"num_deleted":"0","num_feature":"35","num_nodes":"83","size_leaf_vector":"1"}},{"base_weights":[3.1324703E-2,-2.6998234E-1,5.6797147E-1,-7.0849484E-1,-1.04104415E-1,8.7884024E-2,7.0397514E-1,-1.0568982E0,-3.4806505E-1,-5.3761536E-1,1.5845941E-3,5.890015E-1,-2.9683226E-1,1.5048765E-1,7.755609E-1,1.8661961E-1,-1.1720014E0,-1.0421891E0,-6.918782E-2,-8.342612E-1,5.410224E-1,-2.6800108E-1,1.5722264E-1,-4.134066E-1,9.875816E-1,9.9015385E-2,-1.1009626E0,-7.1346563E-1,4.876879E-1,3.295526E-1,8.9689696E-1,2.1273227E-2,-1.0729005E-2,1.9266349E-3,-1.2582688E0,-1.2358884E0,-2.3958986E-3,1.2619269E-1,-4.0738728E-2,-1.1895483E0,2.6100376E-1,1.2598938E0,-7.9724073E-1,-6.466512E-1,-7.157584E-3,-3.7391964E-2,5.1123655E-1,-3.0691722E-2,1.2261021E-2,1.1901135E0,-8.383341E-3,-4.1934037E-1,1.0633938E0,-4.715228E-2,2.3089254E-3,1.834039E-3,-3.824742E-2,9.6056485E-1,-3.5414535E-1,1.1510202E0,2.4807256E-2,7.0274407E-1,1.2229868E0,-4.2954583E-2,-1.504917E-2,-4.285455E-3,-4.2331252E-2,9.225056E-3,-2.5183758E-2,-4.490639E-2,-1.3553017E-2,-2.9731894E-2,1.955512E-2,6.1122477E-3,4.523679E-2,-5.791062E-3,-3.13884E-2,3.8793508E-3,-3.4341834E-2,9.347901E-3,-1.269695E-2,-2.5172433E-2,4.361602E-3,5.7042803E-4,2.605714E-2,4.2871866E-2,3.3126315E-3,1.156762E-2,-3.0249655E-2,3.998838E-2,4.253381E-3,4.4991956E-3,4.133028E-2,9.620304E-3,-3.4854412E-2,3.791702E-3,4.184355E-2,2.1110578E-2,-1.2691603E-2,1.0303664E-2,2.6742758E-2,3.8408216E-2,3.833874E-4],"categories":[],"categories_nodes":[],"categories_segments":[],"categories_sizes":[],"default_left":[0,0,0,0,0,0,0,0,0,0,0,0,0,0,0,0,0,0,0,0,0,0,0,0,0,0,0,0,0,0,0,0,0,0,0,0,0,0,0,0,0,0,0,0,0,0,0,0,0,0,0,0,0,0,0,0,0,0,0,0,0,0,0,0,0,0,0,0,0,0,0,0,0,0,0,0,0,0,0,0,0,0,0,0,0,0,0,0,0,0,0,0,0,0,0,0,0,0,0,0,0,0,0],"id":10,"left_children":[1,3,5,7,9,11,13,15,17,19,21,23,25,27,29,31,33,35,37,39,41,43,45,47,49,51,53,55,57,59,61,-1,-1,-1,63,65,-1,67,-1,69,71,73,75,77,79,81,83,-1,-1,85,-1,87,89,-1,-1,-1,-1,91,93,95,97,99,101,-1,-1,-1,-1,-1,-1,-1,-1,-1,-1,-1,-1,-1,-1,-1,-1,-1,-1,-1,-1,-1,-1,-1,-1,-1,-1,-1,-1,-1,-1,-1,-1,-1,-1,-1,-1,-1,-1,-1,-1],"loss_changes":[6.2329666E1,1.788846E1,8.987083E0,8.121166E0,8.263436E0,6.2932353E0,4.1565895E0,5.0685005E0,6.648488E0,1.1762744E1,6.1674047E0,6.049043E0,6.0354443E0,4.3077545E0,4.859581E0,1.3152047E0,3.402813E0,1.7428856E0,6.677525E0,1.1252628E1,8.923709E0,5.3094006E0,6.439116E0,2.7845457E0,3.0004873E0,7.141447E0,3.5726118E0,1.9139996E0,4.4685354E0,5.467312E0,3.844963E0,0E0,0E0,0E0,3.111702E0,1.3597431E0,0E0,4.3466396E0,0E0,4.1787624E0,4.4176197E0,1.1969337E0,3.2303286E-1,8.625471E0,4.4910617E0,9.069285E0,5.8094444E0,0E0,0E0,2.2038393E0,0E0,4.858821E0,1.0445042E0,0E0,0E0,0E0,0E0,2.129651E0,2.8038113E0,1.30197E0,5.4771447E0,3.0105782E0,1.812542E0,0E0,0E0,0E0,0E0,0E0,0E0,0E0,0E0,0E0,0E0,0E0,0E0,0E0,0E0,0E0,0E0,0E0,0E0,0E0,0E0,0E0,0E0,0E0,0E0,0E0,0E0,0E0,0E0,0E0,0E0,0E0,0E0,0E0,0E0,0E0,0E0,0E0,0E0,0E0,0E0],"parents":[2147483647,0,0,1,1,2,2,3,3,4,4,5,5,6,6,7,7,8,8,9,9,10,10,11,11,12,12,13,13,14,14,15,15,16,16,17,17,18,18,19,19,20,20,21,21,22,22,23,23,24,24,25,25,26,26,27,27,28,28,29,29,30,30,34,34,35,35,37,37,39,39,40,40,41,41,42,42,43,43,44,44,45,45,46,46,49,49,51,51,52,52,57,57,58,58,59,59,60,60,61,61,62,62],"right_children":[2,4,6,8,10,12,14,16,18,20,22,24,26,28,30,32,34,36,38,40,42,44,46,48,50,52,54,56,58,60,62,-1,-1,-1,64,66,-1,68,-1,70,72,74,76,78,80,82,84,-1,-1,86,-1,88,90,-1,-1,-1,-1,92,94,96,98,100,102,-1,-1,-1,-1,-1,-1,-1,-1,-1,-1,-1,-1,-1,-1,-1,-1,-1,-1,-1,-1,-1,-1,-1,-1,-1,-1,-1,-1,-1,-1,-1,-1,-1,-1,-1,-1,-1,-1,-1,-1],"split_conditions":[2.4427897E-1,-7.93779E-1,1.4289957E-1,-1.4194587E-1,-7.92387E-1,-9.9146046E-2,-9.883919E-1,-9.89453E-1,-8.6669624E-1,4.4630253E-1,-3.2090172E-1,-1.0003896E0,5.774825E-1,-6.3720185E-1,4.3829623E-1,-2.3300861E-1,-1.9404039E0,4.1128138E-1,1.8720951E0,7.657284E-1,1.15161024E-1,2.0564048E-1,8.240904E-2,-9.166559E-2,6.633927E-1,-1.2800251E-1,7.818593E-1,6.5050083E-1,8.224593E-1,3.3640504E-1,4.120708E-1,2.1273227E-2,-1.0729005E-2,1.9266349E-3,7.4666494E-1,3.7030673E-1,-2.3958986E-3,1.8627093E0,-4.0738728E-2,1.5411727E-1,-5.5208313E-1,-3.1141758E-1,-2.3549338E-1,-1.0269002E-2,1.5328182E-1,-3.2694232E-1,-2.3300861E-1,-3.0691722E-2,1.2261021E-2,-7.710782E-2,-8.383341E-3,-3.0863754E-2,9.8063433E-1,-4.715228E-2,2.3089254E-3,1.834039E-3,-3.824742E-2,5.1308393E-1,-1.4270641E0,-3.325291E-1,3.0754545E-1,-2.704627E-2,1.9609791E0,-4.2954583E-2,-1.504917E-2,-4.285455E-3,-4.2331252E-2,9.225056E-3,-2.5183758E-2,-4.490639E-2,-1.3553017E-2,-2.9731894E-2,1.955512E-2,6.1122477E-3,4.523679E-2,-5.791062E-3,-3.13884E-2,3.8793508E-3,-3.4341834E-2,9.347901E-3,-1.269695E-2,-2.5172433E-2,4.361602E-3,5.7042803E-4,2.605714E-2,4.2871866E-2,3.3126315E-3,1.156762E-2,-3.0249655E-2,3.998838E-2,4.253381E-3,4.4991956E-3,4.133028E-2,9.620304E-3,-3.4854412E-2,3.791702E-3,4.184355E-2,2.1110578E-2,-1.2691603E-2,1.0303664E-2,2.6742758E-2,3.8408216E-2,3.833874E-4],"split_indices":[17,18,18,24,23,23,27,14,28,10,17,24,17,24,17,22,27,20,24,32,29,29,32,10,32,29,1,18,14,18,10,0,0,0,10,13,0,32,0,18,8,18,27,23,34,30,22,0,0,29,0,21,24,0,0,0,0,18,27,26,17,27,27,0,0,0,0,0,0,0,0,0,0,0,0,0,0,0,0,0,0,0,0,0,0,0,0,0,0,0,0,0,0,0,0,0,0,0,0,0,0,0,0],"split_type":[0,0,0,0,0,0,0,0,0,0,0,0,0,0,0,0,0,0,0,0,0,0,0,0,0,0,0,0,0,0,0,0,0,0,0,0,0,0,0,0,0,0,0,0,0,0,0,0,0,0,0,0,0,0,0,0,0,0,0,0,0,0,0,0,0,0,0,0,0,0,0,0,0,0,0,0,0,0,0,0,0,0,0,0,0,0,0,0,0,0,0,0,0,0,0,0,0,0,0,0,0,0,0],"sum_hessian":[3.8352734E2,2.4593883E2,1.3758852E2,6.660133E1,1.793375E2,3.0736412E1,1.0685211E2,3.2883106E1,3.3718227E1,3.4351032E1,1.4498647E2,1.3118165E1,1.7618246E1,1.2592388E1,9.425972E1,2.7332358E0,3.014987E1,8.879673E0,2.4838554E1,2.7119278E1,7.231755E0,5.2802902E1,9.2183556E1,3.7215254E0,9.39664E0,1.2393962E1,5.2242846E0,3.221812E0,9.370576E0,2.0953745E1,7.330598E1,1.2399613E0,1.4932745E0,1.9833791E0,2.816649E1,7.155188E0,1.7244849E0,2.235202E1,2.4865358E0,2.0411892E1,6.7073855E0,4.7426944E0,2.4890604E0,2.093451E1,3.1868395E1,6.0060463E1,3.2123093E1,1.9965264E0,1.7249991E0,8.153948E0,1.2426913E0,8.428691E0,3.9652712E0,3.4936523E0,1.7306322E0,1.7283764E0,1.4934357E0,5.9098425E0,3.4607332E0,4.918503E0,1.6035242E1,4.792603E1,2.5379946E1,2.218539E1,5.9811E0,1.238973E0,5.916215E0,1.9392479E1,2.959541E0,1.3683127E1,6.728765E0,1.2302887E0,5.477097E0,1.2482641E0,3.4944303E0,1.2446003E0,1.24446E0,8.47364E0,1.2460868E1,1.8186684E1,1.3681711E1,1.0484315E1,4.9576145E1,1.3954389E1,1.8168705E1,6.4114385E0,1.7425097E0,3.70737E0,4.7213206E0,2.7226415E0,1.2426296E0,2.469772E0,3.4400706E0,2.2139206E0,1.2468126E0,1.2370853E0,3.6814177E0,6.1467004E0,9.888542E0,1.7473366E1,3.0452665E1,2.4177565E1,1.20238E0],"tree_param":{"num_deleted":"0","num_feature":"35","num_nodes":"103","size_leaf_vector":"1"}},{"base_weights":[-4.289362E-3,-2.8050193E-1,5.117748E-1,-6.015649E-1,-5.5707376E-2,1.1647084E0,4.140295E-1,-6.861164E-1,4.017339E-1,-4.0593484E-1,5.8209453E-2,1.2496094E0,7.5668056E-4,8.3224785E-1,3.006015E-1,-3.290305E-1,-8.7483966E-1,8.646422E-1,-5.400904E-1,-5.128699E-1,7.65542E-1,4.5890337E-1,-1.3550657E-1,4.8300907E-1,1.3832706E0,-4.455749E-2,1.1082473E0,3.865286E-1,-5.0198925E-1,4.729957E-1,-6.244105E-1,3.7253997E-1,-9.328065E-1,-5.7274345E-3,1.1656975E0,-3.139881E-2,6.2163444E-3,-6.687801E-1,3.8376716E-1,3.0763889E-2,4.9361144E-3,9.6852463E-1,1.2353097E-1,-5.541657E-1,1.6181912E-1,3.0984921E-2,-1.1883458E-2,5.709253E-3,4.54914E-2,2.2992836E-2,-4.6170607E-1,1.2231587E0,-4.5509483E-3,5.4634565E-1,-4.128165E-2,-1.2775568E0,5.86692E-1,-3.3792718E-3,4.4215135E-2,-1.5535227E-3,-2.773491E-2,-4.6768347E-3,2.2019343E-2,-6.729316E-3,-3.1687684E-2,4.2437345E-2,6.913264E-3,1.4904195E-2,-2.3815367E-2,2.6167605E-2,-1.0594217E-2,3.7482616E-2,-8.635269E-3,3.178385E-2,-3.1443129E-3,-2.0524764E-2,2.8577076E-2,-3.523725E-2,8.2041435E-3,-2.7328651E-2,5.4524117E-3,5.14839E-3,4.3363195E-2,3.671419E-2,1.1878137E-2,-2.8179333E-2,6.17418E-3,-4.3774974E-2,-9.5612705E-3,3.552533E-2,-8.255099E-3],"categories":[],"categories_nodes":[],"categories_segments":[],"categories_sizes":[],"default_left":[0,0,0,0,0,0,0,0,0,0,0,0,0,0,0,0,0,0,0,0,0,0,0,0,0,0,0,0,0,0,0,0,0,0,0,0,0,0,0,0,0,0,0,0,0,0,0,0,0,0,0,0,0,0,0,0,0,0,0,0,0,0,0,0,0,0,0,0,0,0,0,0,0,0,0,0,0,0,0,0,0,0,0,0,0,0,0,0,0,0,0],"id":11,"left_children":[1,3,5,7,9,11,13,15,17,19,21,23,-1,25,27,29,31,33,35,37,39,41,43,45,47,49,51,53,55,57,59,61,63,-1,65,-1,-1,67,69,-1,-1,71,73,75,77,-1,-1,-1,-1,-1,79,81,-1,83,85,87,89,-1,-1,-1,-1,-1,-1,-1,-1,-1,-1,-1,-1,-1,-1,-1,-1,-1,-1,-1,-1,-1,-1,-1,-1,-1,-1,-1,-1,-1,-1,-1,-1,-1,-1],"loss_changes":[5.528874E1,1.82002E1,8.148163E0,9.092838E0,5.996143E0,1.6185703E0,5.403034E0,6.197132E0,4.264017E0,5.0109816E0,8.897948E0,9.562416E-1,0E0,6.06546E0,6.767109E0,8.557572E0,4.8561096E0,2.2003236E0,1.5362647E0,5.0630407E0,3.756714E-1,6.259772E0,9.737583E0,2.2894971E0,1.7698479E0,2.692622E0,2.9287167E0,5.9475374E0,8.899515E0,6.0017157E0,4.4061136E0,7.797722E-1,4.999546E0,0E0,8.339677E-1,0E0,0E0,4.7171125E0,2.3700175E0,0E0,0E0,5.5361176E0,5.16692E0,7.0001163E0,7.1990743E0,0E0,0E0,0E0,0E0,0E0,1.6655924E0,3.836197E0,0E0,5.9512043E0,5.6293054E0,5.713196E-1,2.746583E0,0E0,0E0,0E0,0E0,0E0,0E0,0E0,0E0,0E0,0E0,0E0,0E0,0E0,0E0,0E0,0E0,0E0,0E0,0E0,0E0,0E0,0E0,0E0,0E0,0E0,0E0,0E0,0E0,0E0,0E0,0E0,0E0,0E0,0E0],"parents":[2147483647,0,0,1,1,2,2,3,3,4,4,5,5,6,6,7,7,8,8,9,9,10,10,11,11,13,13,14,14,15,15,16,16,17,17,18,18,19,19,20,20,21,21,22,22,23,23,24,24,25,25,26,26,27,27,28,28,29,29,30,30,31,31,32,32,34,34,37,37,38,38,41,41,42,42,43,43,44,44,50,50,51,51,53,53,54,54,55,55,56,56],"right_children":[2,4,6,8,10,12,14,16,18,20,22,24,-1,26,28,30,32,34,36,38,40,42,44,46,48,50,52,54,56,58,60,62,64,-1,66,-1,-1,68,70,-1,-1,72,74,76,78,-1,-1,-1,-1,-1,80,82,-1,84,86,88,90,-1,-1,-1,-1,-1,-1,-1,-1,-1,-1,-1,-1,-1,-1,-1,-1,-1,-1,-1,-1,-1,-1,-1,-1,-1,-1,-1,-1,-1,-1,-1,-1,-1,-1],"split_conditions":[2.4427897E-1,-4.60088E-1,-1.5531074E0,2.1333575E0,-3.8847828E-1,-3.830653E-1,-1.2743567E-1,5.847657E-1,5.2862465E-2,1.4684246E0,-4.3059653E-1,-4.3477932E-1,7.5668056E-4,-3.1949446E-1,2.0564048E-1,-1.03031784E-1,-6.2350154E-1,-1.1207722E0,2.79869E-2,1.343822E0,9.031878E-1,4.2085147E-1,-1.619323E-1,2.8727597E-1,-1.2250658E0,3.4550536E-1,1.65683E0,4.7827652E-1,2.2477718E-1,-1.701592E-1,-6.513184E-1,-1.0726358E0,-1.2979108E-1,-5.7274345E-3,7.791664E-1,-3.139881E-2,6.2163444E-3,-1.1990145E0,1.8060609E0,3.0763889E-2,4.9361144E-3,5.3467876E-1,-4.4910938E-1,1.2734147E0,-3.6130437E-1,3.0984921E-2,-1.1883458E-2,5.709253E-3,4.54914E-2,2.2992836E-2,-4.7646195E-1,-7.839785E-1,-4.5509483E-3,-1.0636069E0,-7.293452E-1,4.178483E-1,1.2882204E0,-3.3792718E-3,4.4215135E-2,-1.5535227E-3,-2.773491E-2,-4.6768347E-3,2.2019343E-2,-6.729316E-3,-3.1687684E-2,4.2437345E-2,6.913264E-3,1.4904195E-2,-2.3815367E-2,2.6167605E-2,-1.0594217E-2,3.7482616E-2,-8.635269E-3,3.178385E-2,-3.1443129E-3,-2.0524764E-2,2.8577076E-2,-3.523725E-2,8.2041435E-3,-2.7328651E-2,5.4524117E-3,5.14839E-3,4.3363195E-2,3.671419E-2,1.1878137E-2,-2.8179333E-2,6.17418E-3,-4.3774974E-2,-9.5612705E-3,3.552533E-2,-8.255099E-3],"split_indices":[17,17,32,2,5,33,21,32,19,12,12,1,0,27,29,11,25,19,28,24,27,5,29,24,29,17,19,9,34,27,19,16,21,0,28,0,0,19,24,0,0,28,32,27,12,0,0,0,0,0,32,29,0,22,34,27,34,0,0,0,0,0,0,0,0,0,0,0,0,0,0,0,0,0,0,0,0,0,0,0,0,0,0,0,0,0,0,0,0,0,0],"split_type":[0,0,0,0,0,0,0,0,0,0,0,0,0,0,0,0,0,0,0,0,0,0,0,0,0,0,0,0,0,0,0,0,0,0,0,0,0,0,0,0,0,0,0,0,0,0,0,0,0,0,0,0,0,0,0,0,0,0,0,0,0,0,0,0,0,0,0,0,0,0,0,0,0,0,0,0,0,0,0,0,0,0,0,0,0,0,0,0,0,0,0],"sum_hessian":[3.858659E2,2.5163824E2,1.3422766E2,1.029392E2,1.4869905E2,1.605634E1,1.18171326E2,9.522998E1,7.7092223E0,3.586666E1,1.1283239E2,1.48530245E1,1.2033151E0,2.386007E1,9.431126E1,3.387607E1,6.135391E1,5.223709E0,2.485513E0,3.3381706E1,2.4849553E0,3.6325527E1,7.650686E1,2.8902082E0,1.1962816E1,5.9132366E0,1.7946833E1,8.565884E1,8.652422E0,8.9563E0,2.4919771E1,2.4835687E0,5.887034E1,1.2404178E0,3.9832916E0,1.2426665E0,1.2428465E0,2.8653471E1,4.7282352E0,1.2417003E0,1.2432549E0,1.3668063E1,2.2657465E1,3.141214E1,4.5094723E1,1.6705642E0,1.2196441E0,1.4447048E0,1.0518111E1,1.7240945E0,4.189142E0,1.6473581E1,1.4732507E0,6.216048E1,2.3498356E1,4.9515142E0,3.7009077E0,6.2099996E0,2.7463E0,8.971972E0,1.5947798E1,1.2397282E0,1.2438403E0,9.153586E0,4.9716755E1,2.7412994E0,1.241992E0,2.488525E0,2.6164946E1,2.732939E0,1.9952962E0,1.1175089E1,2.4929745E0,3.7298126E0,1.8927652E1,2.941988E1,1.9922584E0,2.7430112E0,4.235171E1,2.222028E0,1.9671142E0,3.1838405E0,1.32897415E1,9.996782E0,5.21637E1,4.4658585E0,1.9032497E1,3.7243237E0,1.2271905E0,1.9648206E0,1.7360872E0],"tree_param":{"num_deleted":"0","num_feature":"35","num_nodes":"91","size_leaf_vector":"1"}},{"base_weights":[-1.7322212E-2,-4.0570396E-1,4.0352482E-1,-5.6891274E-1,-1.2182066E-1,6.141773E-2,5.476875E-1,3.122107E-1,-6.1564535E-1,6.619229E-1,-2.6600134E-1,-3.2198247E-2,1.525337E-1,7.207228E-1,2.9373324E-1,-2.8711574E-2,1.0122198E0,-5.523769E-1,-4.5610636E-2,-1.4500758E-2,9.846881E-1,-6.565085E-1,1.6966227E-2,3.3477685E-1,-5.428819E-1,8.8345714E-2,9.0147424E-1,6.350266E-1,-1.9229937E-1,3.676703E-2,6.121994E-3,-6.3852924E-1,2.8861642E-1,-2.8305006E-1,4.4367686E-2,-7.7088696E-1,2.248399E-2,-2.8237E-1,3.952802E-1,-4.082408E-1,5.0746846E-1,2.166676E-2,-8.1098074E-1,-2.24735E-1,7.718264E-1,1.2291207E0,6.230259E-1,3.29982E-1,1.2362119E0,-1.2055957E0,5.0226174E-2,-1.5221241E-2,-3.8677514E-2,-2.524302E-2,2.124078E-2,6.966228E-3,-2.0174108E-2,6.0864366E-3,-2.7382417E-2,4.264545E-3,-2.6618881E-2,-3.8957022E-2,2.0272387E-2,-2.9039701E-2,1.6877567E-2,1.835917E-2,-1.792277E-2,-1.9569069E-3,-3.949773E-2,-2.5582882E-2,7.797362E-3,3.787737E-2,-4.015543E-3,4.006326E-2,8.766896E-3,2.552273E-2,-1.3058461E-2,-3.0013643E-2,1.4700487E-2,4.1019015E-2,4.6266294E-3,-9.164699E-3,-4.358112E-2,2.4176218E-2,-7.2918814E-3],"categories":[],"categories_nodes":[],"categories_segments":[],"categories_sizes":[],"default_left":[0,0,0,0,0,0,0,0,0,0,0,0,0,0,0,0,0,0,0,0,0,0,0,0,0,0,0,0,0,0,0,0,0,0,0,0,0,0,0,0,0,0,0,0,0,0,0,0,0,0,0,0,0,0,0,0,0,0,0,0,0,0,0,0,0,0,0,0,0,0,0,0,0,0,0,0,0,0,0,0,0,0,0,0,0],"id":12,"left_children":[1,3,5,7,9,11,13,15,17,19,21,-1,23,25,27,-1,29,31,-1,-1,33,35,37,39,41,43,45,47,49,-1,-1,51,53,55,-1,57,-1,59,61,63,65,-1,67,69,71,73,75,77,79,81,83,-1,-1,-1,-1,-1,-1,-1,-1,-1,-1,-1,-1,-1,-1,-1,-1,-1,-1,-1,-1,-1,-1,-1,-1,-1,-1,-1,-1,-1,-1,-1,-1,-1,-1],"loss_changes":[6.2204224E1,9.099747E0,8.975603E0,5.355152E0,8.483215E0,5.8793E0,5.4301453E0,7.1692166E0,5.9948845E0,4.8043704E0,6.951126E0,0E0,6.7781506E0,8.569977E0,9.032724E0,0E0,6.0922337E-1,8.383942E0,0E0,0E0,6.3484488E0,4.8253613E0,4.345946E0,5.578307E0,4.380809E0,4.010209E0,4.5934715E0,5.421978E0,5.6949515E0,0E0,0E0,8.133545E0,5.9063225E0,8.572396E-1,0E0,3.627489E0,0E0,5.636631E0,8.922055E0,5.135604E0,4.338929E0,0E0,3.572998E0,4.200272E0,2.7728572E0,2.1955833E0,8.512467E0,5.2708974E0,1.25525E0,5.4994535E-1,4.5085735E0,0E0,0E0,0E0,0E0,0E0,0E0,0E0,0E0,0E0,0E0,0E0,0E0,0E0,0E0,0E0,0E0,0E0,0E0,0E0,0E0,0E0,0E0,0E0,0E0,0E0,0E0,0E0,0E0,0E0,0E0,0E0,0E0,0E0,0E0],"parents":[2147483647,0,0,1,1,2,2,3,3,4,4,5,5,6,6,7,7,8,8,9,9,10,10,12,12,13,13,14,14,16,16,17,17,20,20,21,21,22,22,23,23,24,24,25,25,26,26,27,27,28,28,31,31,32,32,33,33,35,35,37,37,38,38,39,39,40,40,42,42,43,43,44,44,45,45,46,46,47,47,48,48,49,49,50,50],"right_children":[2,4,6,8,10,12,14,16,18,20,22,-1,24,26,28,-1,30,32,-1,-1,34,36,38,40,42,44,46,48,50,-1,-1,52,54,56,-1,58,-1,60,62,64,66,-1,68,70,72,74,76,78,80,82,84,-1,-1,-1,-1,-1,-1,-1,-1,-1,-1,-1,-1,-1,-1,-1,-1,-1,-1,-1,-1,-1,-1,-1,-1,-1,-1,-1,-1,-1,-1,-1,-1,-1,-1],"split_conditions":[-2.1440312E-2,-3.2090172E-1,1.5411727E-1,-6.4506054E-1,-3.988261E-1,-6.087315E-1,-4.372912E-1,-2.5364544E-2,-3.5042608E-1,1.9866723E-1,-2.9233122E-2,-3.2198247E-2,3.5270426E-1,-8.546009E-1,2.5573027E-1,-2.8711574E-2,4.9826863E-1,-4.3478143E-1,-4.5610636E-2,-1.4500758E-2,-9.1155285E-1,1.2061341E0,-1.6738169E-1,-3.2886204E-1,-1.1788948E0,1.2281487E0,8.215709E-1,-1.5062237E-1,-5.339549E-1,3.676703E-2,6.121994E-3,6.0060203E-1,-9.01698E-3,1.9043367E-1,4.4367686E-2,-8.645678E-1,2.248399E-2,2.3268139E-2,-3.995603E-1,7.818593E-1,1.17659725E-1,2.166676E-2,-1.7496292E-1,-3.6957976E-1,4.8908964E-1,6.6383517E-1,4.491265E-1,-3.897749E-1,1.4251018E0,-1.2136531E-1,-2.1672237E-1,-1.5221241E-2,-3.8677514E-2,-2.524302E-2,2.124078E-2,6.966228E-3,-2.0174108E-2,6.0864366E-3,-2.7382417E-2,4.264545E-3,-2.6618881E-2,-3.8957022E-2,2.0272387E-2,-2.9039701E-2,1.6877567E-2,1.835917E-2,-1.792277E-2,-1.9569069E-3,-3.949773E-2,-2.5582882E-2,7.797362E-3,3.787737E-2,-4.015543E-3,4.006326E-2,8.766896E-3,2.552273E-2,-1.3058461E-2,-3.0013643E-2,1.4700487E-2,4.1019015E-2,4.6266294E-3,-9.164699E-3,-4.358112E-2,2.4176218E-2,-7.2918814E-3],"split_indices":[17,17,18,25,32,16,33,9,17,10,1,0,14,23,12,0,2,17,0,0,32,28,14,25,12,12,18,29,19,0,0,9,32,22,0,12,0,25,9,1,18,0,24,32,9,30,9,33,10,23,22,0,0,0,0,0,0,0,0,0,0,0,0,0,0,0,0,0,0,0,0,0,0,0,0,0,0,0,0,0,0,0,0,0,0],"split_type":[0,0,0,0,0,0,0,0,0,0,0,0,0,0,0,0,0,0,0,0,0,0,0,0,0,0,0,0,0,0,0,0,0,0,0,0,0,0,0,0,0,0,0,0,0,0,0,0,0,0,0,0,0,0,0,0,0,0,0,0,0,0,0,0,0,0,0,0,0,0,0,0,0,0,0,0,0,0,0,0,0,0,0,0,0],"sum_hessian":[3.7857034E2,1.9689777E2,1.8167258E2,1.2438368E2,7.251409E1,5.428259E1,1.27389984E2,5.9786143E0,1.1840507E2,1.0709268E1,6.180482E1,3.2336633E0,5.1048923E1,7.467268E1,5.27173E1,1.9946662E0,3.983948E0,1.12171234E2,6.2338357E0,2.2451508E0,8.464117E0,2.5413305E1,3.6391518E1,4.085968E1,1.0189242E1,1.6930037E1,5.7742645E1,3.078996E1,2.1927338E1,2.7432437E0,1.2407042E0,1.0196642E2,1.0204813E1,2.494048E0,5.970069E0,2.391915E1,1.4941571E0,2.0457994E1,1.5933522E1,7.4484057E0,3.3411274E1,1.4855131E0,8.70373E0,1.2071609E1,4.8584285E0,2.4959251E1,3.2783394E1,2.1453321E1,9.33664E0,3.467744E0,1.8459595E1,8.63434E1,1.5623025E1,2.4898813E0,7.7149315E0,1.247345E0,1.2467031E0,2.9867978E0,2.093235E1,1.2471105E1,7.986889E0,1.7478024E0,1.41857195E1,4.7262907E0,2.7221153E0,3.093179E1,2.4794865E0,3.9729037E0,4.730826E0,4.9271846E0,7.144424E0,2.8954325E0,1.9629962E0,2.2033432E1,2.9258187E0,2.7139503E1,5.6438913E0,1.7396148E0,1.9713707E1,8.092504E0,1.2441366E0,1.2286346E0,2.2391095E0,4.6727405E0,1.3786854E1],"tree_param":{"num_deleted":"0","num_feature":"35","num_nodes":"85","size_leaf_vector":"1"}},{"base_weights":[-2.462239E-2,-3.24628E-1,5.0539136E-1,-1.3443346E-1,-6.3467336E-1,1.1354584E0,4.1219175E-1,1.0199558E0,-1.6842915E-1,-6.911155E-1,5.641546E-1,4.0812665E-1,4.2562116E-2,4.8251086E-1,-2.7469495E-1,5.041356E-3,3.8826257E-2,8.788527E-1,-2.0897444E-1,-7.4730504E-1,5.9880817E-1,-1.15069905E-2,3.708004E-2,-1.3001855E-2,2.8910698E-2,3.1183934E-1,7.425152E-1,-7.6555216E-1,3.4848207E-1,-5.726024E-3,3.6567513E-2,-2.446892E-1,8.89095E-1,-7.9866076E-1,4.9980924E-1,3.8706105E-2,-1.7787287E-2,3.6802866E-2,7.576285E-1,7.992359E-1,-1.5305313E-2,1.9952439E-2,-1.2722781E0,-2.2844781E-1,2.732494E-2,-6.377326E-3,-3.6671717E-2,4.5590764E-3,3.8020995E-2,-2.0935616E-2,-3.7815876E-2,3.633344E-2,-1.7735152E-2,2.0498654E-2,-4.447066E-3,8.755161E-3,3.587536E-2,2.7004957E-2,-2.3263613E-4,-1.1768966E-2,-4.5079306E-2,9.626771E-3,-2.212924E-2],"categories":[],"categories_nodes":[],"categories_segments":[],"categories_sizes":[],"default_left":[0,0,0,0,0,0,0,0,0,0,0,0,0,0,0,0,0,0,0,0,0,0,0,0,0,0,0,0,0,0,0,0,0,0,0,0,0,0,0,0,0,0,0,0,0,0,0,0,0,0,0,0,0,0,0,0,0,0,0,0,0,0,0],"id":13,"left_children":[1,3,5,7,9,11,13,15,17,19,21,23,-1,25,27,-1,-1,29,31,33,35,-1,-1,-1,-1,37,39,41,43,-1,-1,45,47,49,51,-1,-1,53,55,57,-1,-1,59,61,-1,-1,-1,-1,-1,-1,-1,-1,-1,-1,-1,-1,-1,-1,-1,-1,-1,-1,-1],"loss_changes":[6.0366566E1,1.4207323E1,7.5909386E0,6.1169662E0,6.6071854E0,2.947239E0,5.983019E0,8.281412E-1,6.4687753E0,6.8404083E0,3.4552674E0,3.316817E0,0E0,4.660349E0,3.9024973E0,0E0,0E0,2.3094134E0,5.837679E0,5.840893E0,4.2559576E0,0E0,0E0,0E0,0E0,8.34341E0,3.4603767E0,5.892836E0,2.1300883E0,0E0,0E0,4.122262E0,1.126302E0,2.9377403E0,3.8010724E0,0E0,0E0,5.2781987E0,4.9581385E0,3.3863754E0,0E0,0E0,5.222082E-1,1.2782848E0,0E0,0E0,0E0,0E0,0E0,0E0,0E0,0E0,0E0,0E0,0E0,0E0,0E0,0E0,0E0,0E0,0E0,0E0,0E0],"parents":[2147483647,0,0,1,1,2,2,3,3,4,4,5,5,6,6,7,7,8,8,9,9,10,10,11,11,13,13,14,14,17,17,18,18,19,19,20,20,25,25,26,26,27,27,28,28,31,31,32,32,33,33,34,34,37,37,38,38,39,39,42,42,43,43],"right_children":[2,4,6,8,10,12,14,16,18,20,22,24,-1,26,28,-1,-1,30,32,34,36,-1,-1,-1,-1,38,40,42,44,-1,-1,46,48,50,52,-1,-1,54,56,58,-1,-1,60,62,-1,-1,-1,-1,-1,-1,-1,-1,-1,-1,-1,-1,-1,-1,-1,-1,-1,-1,-1],"split_conditions":[2.4006121E-1,5.4529756E-1,-1.5531074E0,-1.7858319E0,4.5086792E-1,-1.371688E0,5.320837E-1,-8.136314E-2,-8.647456E-4,2.8662975E0,-7.3002505E-1,1.547196E0,4.2562116E-2,1.1178081E0,-1.3315885E-1,5.041356E-3,3.8826257E-2,-1.7517039E0,1.9640902E0,1.8915569E0,1.01303004E-1,-1.15069905E-2,3.708004E-2,-1.3001855E-2,2.8910698E-2,3.5251412E-1,2.0733144E0,-1.275296E0,-2.3300861E-1,-5.726024E-3,3.6567513E-2,1.1915916E0,-7.9314315E-1,8.611942E-1,2.2827685E0,3.8706105E-2,-1.7787287E-2,-6.263549E-1,-1.6357644E-1,1.2047123E0,-1.5305313E-2,1.9952439E-2,7.197215E-1,6.4630115E-1,2.732494E-2,-6.377326E-3,-3.6671717E-2,4.5590764E-3,3.8020995E-2,-2.0935616E-2,-3.7815876E-2,3.633344E-2,-1.7735152E-2,2.0498654E-2,-4.447066E-3,8.755161E-3,3.587536E-2,2.7004957E-2,-2.3263613E-4,-1.1768966E-2,-4.5079306E-2,9.626771E-3,-2.212924E-2],"split_indices":[17,32,32,19,16,34,13,26,7,6,17,27,0,31,34,0,0,4,27,19,26,0,0,0,0,27,12,34,22,0,0,26,5,25,19,0,0,13,25,16,0,0,16,14,0,0,0,0,0,0,0,0,0,0,0,0,0,0,0,0,0,0,0],"split_type":[0,0,0,0,0,0,0,0,0,0,0,0,0,0,0,0,0,0,0,0,0,0,0,0,0,0,0,0,0,0,0,0,0,0,0,0,0,0,0,0,0,0,0,0,0,0,0,0,0,0,0,0,0,0,0,0,0,0,0,0,0,0,0],"sum_hessian":[3.776152E2,2.4137587E2,1.3623935E2,1.5049168E2,9.088418E1,1.6114658E1,1.20124695E2,3.4753954E0,1.470163E2,8.720212E1,3.6820645E0,5.2011595E0,1.0913498E1,1.0923903E2,1.0885661E1,1.2391056E0,2.2362897E0,4.708937E0,1.4230736E2,8.396522E1,3.2368972E0,1.7054323E0,1.9766322E0,2.1557324E0,3.0454268E0,6.727673E1,4.1962296E1,5.9615035E0,4.9241576E0,1.2417066E0,3.4672306E0,1.3857729E2,3.7300696E0,8.0989685E1,2.975532E0,1.9961531E0,1.2407442E0,4.2276287E1,2.5000448E1,4.0490894E1,1.471402E0,1.4775231E0,4.48398E0,2.7236502E0,2.2005074E0,1.3534929E2,3.2279928E0,1.7403842E0,1.9896854E0,6.8540955E1,1.2448729E1,1.7345271E0,1.2410048E0,8.808509E0,3.3467777E1,1.2926537E1,1.2073912E1,3.5887077E1,4.6038165E0,1.491085E0,2.9928954E0,1.4880643E0,1.2355859E0],"tree_param":{"num_deleted":"0","num_feature":"35","num_nodes":"63","size_leaf_vector":"1"}},{"base_weights":[5.909284E-2,-5.867537E-1,2.675143E-1,-4.5616925E-1,-1.2537131E0,1.2428642E-1,6.471705E-1,-1.3163139E0,-3.4175828E-1,-1.4051805E0,-7.855236E-3,-1.7851095E-1,2.8747183E-1,6.857031E-2,7.9638714E-1,-4.490476E-2,-1.0079116E-2,-4.145455E-1,9.9899524E-1,-4.6159726E-2,-1.0440715E-2,-3.4256855E-1,3.7668028E-1,-4.7082786E-2,4.057286E-1,7.981368E-1,-4.5976934E-1,9.642726E-1,2.7014086E-1,-5.776269E-1,-4.0715445E-2,6.393549E-3,3.8343474E-2,-4.0901813E-1,2.7843935E-2,-2.4573898E-1,7.375475E-1,-2.6443005E-1,7.541201E-1,4.792894E-1,-4.6961105E-1,-6.89666E-3,1.1393008E0,-9.709661E-1,6.508792E-1,1.0757583E0,2.671147E-1,-1.0151873E-1,9.324076E-1,-2.08871E-2,1.7617932E-2,9.731242E-3,-2.3999274E-2,-2.1325905E-2,-4.799046E-3,1.279893E-2,-2.460973E-2,3.3130925E-2,-2.1939117E-3,-1.3122467E-2,1.5240106E-2,3.1846963E-2,-7.2738104E-3,1.7527757E-2,-2.679811E-3,-3.6120467E-2,1.1174089E-2,1.8312692E-3,4.2234045E-2,-3.6577437E-2,5.339085E-3,-9.389442E-4,3.219238E-2,3.4380168E-2,-3.547674E-3,-3.353442E-2,2.777061E-2,8.68984E-3,-3.5946365E-2,3.7777685E-2,7.1064676E-3],"categories":[],"categories_nodes":[],"categories_segments":[],"categories_sizes":[],"default_left":[0,0,0,0,0,0,0,0,0,0,0,0,0,0,0,0,0,0,0,0,0,0,0,0,0,0,0,0,0,0,0,0,0,0,0,0,0,0,0,0,0,0,0,0,0,0,0,0,0,0,0,0,0,0,0,0,0,0,0,0,0,0,0,0,0,0,0,0,0,0,0,0,0,0,0,0,0,0,0,0,0],"id":14,"left_children":[1,3,5,7,9,11,13,15,17,19,-1,21,23,25,27,-1,-1,29,31,-1,-1,33,35,37,39,41,43,45,47,49,51,-1,-1,53,-1,55,57,59,61,63,65,-1,67,69,71,73,75,77,79,-1,-1,-1,-1,-1,-1,-1,-1,-1,-1,-1,-1,-1,-1,-1,-1,-1,-1,-1,-1,-1,-1,-1,-1,-1,-1,-1,-1,-1,-1,-1,-1],"loss_changes":[5.165943E1,7.5854607E0,1.568622E1,7.412861E0,1.850071E0,1.051503E1,6.7819557E0,1.0949383E0,7.4277534E0,1.2394295E0,0E0,6.9398794E0,5.4783773E0,7.0464396E0,5.292801E0,0E0,0E0,4.175395E0,6.037071E-1,0E0,0E0,5.2975597E0,4.119199E0,6.63093E0,6.7964725E0,2.9427857E0,6.69841E0,3.386177E0,4.17853E0,7.0241575E0,6.356681E0,0E0,0E0,4.099313E0,0E0,3.1255836E0,3.4552832E0,4.2030706E0,2.7516623E0,5.7008915E0,5.653535E0,0E0,1.6242409E0,2.4187264E0,1.1759938E0,3.5256195E0,8.191386E0,5.2932706E0,1.0798678E0,0E0,0E0,0E0,0E0,0E0,0E0,0E0,0E0,0E0,0E0,0E0,0E0,0E0,0E0,0E0,0E0,0E0,0E0,0E0,0E0,0E0,0E0,0E0,0E0,0E0,0E0,0E0,0E0,0E0,0E0,0E0,0E0],"parents":[2147483647,0,0,1,1,2,2,3,3,4,4,5,5,6,6,7,7,8,8,9,9,11,11,12,12,13,13,14,14,17,17,18,18,21,21,22,22,23,23,24,24,25,25,26,26,27,27,28,28,29,29,30,30,33,33,35,35,36,36,37,37,38,38,39,39,40,40,42,42,43,43,44,44,45,45,46,46,47,47,48,48],"right_children":[2,4,6,8,10,12,14,16,18,20,-1,22,24,26,28,-1,-1,30,32,-1,-1,34,36,38,40,42,44,46,48,50,52,-1,-1,54,-1,56,58,60,62,64,66,-1,68,70,72,74,76,78,80,-1,-1,-1,-1,-1,-1,-1,-1,-1,-1,-1,-1,-1,-1,-1,-1,-1,-1,-1,-1,-1,-1,-1,-1,-1,-1,-1,-1,-1,-1,-1,-1],"split_conditions":[-4.9383014E-1,6.0060203E-1,5.193992E-1,-1.2678791E0,1.119767E0,-1.7526105E-1,1.7094384E-1,1.6849006E0,2.2703238E-1,1.1178081E0,-7.855236E-3,6.109524E-1,-3.8847828E-1,6.8809164E-1,3.6964923E-1,-4.490476E-2,-1.0079116E-2,2.1880996E-1,-4.3621715E-3,-4.6159726E-2,-1.0440715E-2,1.1132313E0,-8.490929E-1,1.0112525E0,1.7376266E0,-4.61016E-1,4.0588048E-1,4.8908964E-1,1.895325E-1,2.1621952E0,2.5830138E-1,6.393549E-3,3.8343474E-2,-2.3300861E-1,2.7843935E-2,8.8222995E-2,1.4473961E-1,6.364787E-1,3.8536808E-1,7.070299E-1,7.71849E-1,-6.89666E-3,-1.0174288E-1,9.5264906E-1,1.1178081E0,2.5450819E0,-6.5929645E-1,-2.7477646E-1,3.8843662E-1,-2.08871E-2,1.7617932E-2,9.731242E-3,-2.3999274E-2,-2.1325905E-2,-4.799046E-3,1.279893E-2,-2.460973E-2,3.3130925E-2,-2.1939117E-3,-1.3122467E-2,1.5240106E-2,3.1846963E-2,-7.2738104E-3,1.7527757E-2,-2.679811E-3,-3.6120467E-2,1.1174089E-2,1.8312692E-3,4.2234045E-2,-3.6577437E-2,5.339085E-3,-9.389442E-4,3.219238E-2,3.4380168E-2,-3.547674E-3,-3.353442E-2,2.777061E-2,8.68984E-3,-3.5946365E-2,3.7777685E-2,7.1064676E-3],"split_indices":[17,9,16,23,4,30,18,32,18,31,0,12,5,16,25,0,0,21,9,0,0,18,10,28,22,22,32,9,10,6,28,0,0,22,0,28,10,18,20,30,23,0,15,19,31,12,4,10,11,0,0,0,0,0,0,0,0,0,0,0,0,0,0,0,0,0,0,0,0,0,0,0,0,0,0,0,0,0,0,0,0],"split_type":[0,0,0,0,0,0,0,0,0,0,0,0,0,0,0,0,0,0,0,0,0,0,0,0,0,0,0,0,0,0,0,0,0,0,0,0,0,0,0,0,0,0,0,0,0,0,0,0,0,0,0,0,0,0,0,0,0,0,0,0,0,0,0,0,0,0,0,0,0,0,0,0,0,0,0,0,0,0,0,0,0],"sum_hessian":[3.8161E2,9.266106E1,2.8894894E2,7.889759E1,1.3763461E1,2.1076411E2,7.8184814E1,8.029144E0,7.086845E1,1.1578613E1,2.1848474E0,7.377591E1,1.369882E2,1.6328646E1,6.1856167E1,6.335706E0,1.6934378E0,6.7874466E1,2.993979E0,9.876175E0,1.7024385E0,5.7243557E1,1.6532354E1,3.5933186E1,1.0105502E2,6.6437974E0,9.684848E0,4.6264347E1,1.5591818E1,4.687872E1,2.0995749E1,1.2468761E0,1.7471027E0,5.504326E1,2.2002985E0,6.1844773E0,1.03478775E1,2.8792442E1,7.1407447E0,9.36384E1,7.416624E0,1.736721E0,4.9070764E0,6.7183623E0,2.966485E0,3.9417805E1,6.846543E0,1.0529465E1,5.062353E0,4.2911743E1,3.9669771E0,1.4564963E1,6.430785E0,2.4045774E1,3.0997484E1,2.9684017E0,3.2160754E0,6.8748593E0,3.4730182E0,2.387858E1,4.9138618E0,5.407364E0,1.7333807E0,7.9022896E1,1.4615498E1,3.7320116E0,3.6846125E0,1.223007E0,3.6840694E0,5.474204E0,1.2441584E0,1.488035E0,1.4784502E0,3.726557E1,2.152236E0,1.981747E0,4.8647957E0,8.303547E0,2.225918E0,2.892547E0,2.1698062E0],"tree_param":{"num_deleted":"0","num_feature":"35","num_nodes":"81","size_leaf_vector":"1"}},{"base_weights":[4.0805075E-2,-3.7113678E-1,3.4140116E-1,-3.0382282E-1,-1.26716E0,5.034978E-1,3.5987914E-2,-1.5193513E-1,-6.564796E-1,-4.2261187E-2,-2.3799678E-3,-2.254133E-1,5.809025E-1,-3.5269505E-1,3.0844495E-1,-7.779889E-2,-1.1238095E0,-3.352245E-1,-1.4056689E0,-5.3539044E-1,7.203478E-1,1.099341E0,4.649663E-1,-1.195844E0,-8.455878E-2,1.0406947E0,7.10322E-2,-1.336285E-1,3.6486883E-2,-4.266283E-2,6.124732E-3,-6.686807E-1,4.5494434E-1,-4.517427E-2,-1.4094953E-2,-8.645238E-1,8.88693E-3,3.5053458E-2,-4.970305E-4,-1.8399461E-3,1.2111255E0,7.3112977E-1,2.5128812E-1,4.7490397E-3,-4.43845E-2,-4.635221E-1,4.8893663E-1,4.3497604E-4,1.2228549E0,8.013654E-1,-1.0613251E-1,-1.5661012E-2,2.1303645E-3,1.4704009E-2,-3.276036E-2,3.3689603E-2,-1.5145146E-4,-4.169225E-3,-2.9101638E-2,1.0670616E-2,4.2861987E-2,-2.6563648E-3,2.5780015E-2,1.103636E-2,-2.5310272E-2,-2.2064812E-2,1.3961122E-2,-3.2651614E-2,2.4422284E-2,4.1168083E-2,1.0064584E-2,-1.5396273E-2,3.7232406E-2,-1.4840601E-2,1.2774727E-2],"categories":[],"categories_nodes":[],"categories_segments":[],"categories_sizes":[],"default_left":[0,0,0,0,0,0,0,0,0,0,0,0,0,0,0,0,0,0,0,0,0,0,0,0,0,0,0,0,0,0,0,0,0,0,0,0,0,0,0,0,0,0,0,0,0,0,0,0,0,0,0,0,0,0,0,0,0,0,0,0,0,0,0,0,0,0,0,0,0,0,0,0,0,0,0],"id":15,"left_children":[1,3,5,7,9,11,13,15,17,-1,-1,19,21,23,25,27,29,31,33,35,37,39,41,43,45,47,49,51,-1,-1,-1,53,55,-1,-1,57,-1,-1,-1,-1,59,61,63,-1,-1,65,67,-1,69,71,73,-1,-1,-1,-1,-1,-1,-1,-1,-1,-1,-1,-1,-1,-1,-1,-1,-1,-1,-1,-1,-1,-1,-1,-1],"loss_changes":[4.696611E1,9.268711E0,1.0834017E1,7.9448795E0,1.7156086E0,8.206242E0,8.271615E0,7.5698442E0,1.033798E1,0E0,0E0,4.6248827E0,7.2824783E0,7.1857967E0,7.8967543E0,7.37386E0,3.2445107E0,8.932264E0,5.2630043E-1,3.3940601E0,1.3388331E0,3.0537796E0,5.9415874E0,3.192048E0,5.7753386E0,2.067027E0,4.7038236E0,7.7144027E0,0E0,0E0,0E0,1.2030431E1,3.1747954E0,0E0,0E0,5.136275E-1,0E0,0E0,0E0,0E0,3.4000397E0,5.060999E0,8.131529E0,0E0,0E0,4.3555913E0,6.345234E0,0E0,7.9378414E-1,4.732785E0,6.3310547E0,0E0,0E0,0E0,0E0,0E0,0E0,0E0,0E0,0E0,0E0,0E0,0E0,0E0,0E0,0E0,0E0,0E0,0E0,0E0,0E0,0E0,0E0,0E0,0E0],"parents":[2147483647,0,0,1,1,2,2,3,3,4,4,5,5,6,6,7,7,8,8,11,11,12,12,13,13,14,14,15,15,16,16,17,17,18,18,19,19,20,20,21,21,22,22,23,23,24,24,25,25,26,26,27,27,31,31,32,32,35,35,40,40,41,41,42,42,45,45,46,46,48,48,49,49,50,50],"right_children":[2,4,6,8,10,12,14,16,18,-1,-1,20,22,24,26,28,30,32,34,36,38,40,42,44,46,48,50,52,-1,-1,-1,54,56,-1,-1,58,-1,-1,-1,-1,60,62,64,-1,-1,66,68,-1,70,72,74,-1,-1,-1,-1,-1,-1,-1,-1,-1,-1,-1,-1,-1,-1,-1,-1,-1,-1,-1,-1,-1,-1,-1,-1],"split_conditions":[-1.3532001E-1,1.8627093E0,2.1174373E-1,7.6049244E-1,3.995026E-1,-8.4068364E-1,1.7094384E-1,6.0156256E-1,3.1376123E-2,-4.2261187E-2,-2.3799678E-3,1.9977191E-1,-1.1876341E-1,-3.2023844E-1,-8.796941E-1,1.6959511E0,1.0183004E0,5.811945E-1,7.5349915E-1,1.044859E0,5.4798675E-1,-1.1797073E0,-6.847799E-1,-1.7525078E-1,-3.1584173E-2,-8.984425E-1,-6.236533E-1,-1.4920378E-1,3.6486883E-2,-4.266283E-2,6.124732E-3,-5.435778E-2,7.891935E-1,-4.517427E-2,-1.4094953E-2,-1.2458717E0,8.88693E-3,3.5053458E-2,-4.970305E-4,-1.8399461E-3,-3.4035632E-1,-5.120466E-1,1.4607605E0,4.7490397E-3,-4.43845E-2,-3.7910873E-1,-1.1626163E0,4.3497604E-4,2.9942763E-1,-1.6851984E0,5.404858E-1,-1.5661012E-2,2.1303645E-3,1.4704009E-2,-3.276036E-2,3.3689603E-2,-1.5145146E-4,-4.169225E-3,-2.9101638E-2,1.0670616E-2,4.2861987E-2,-2.6563648E-3,2.5780015E-2,1.103636E-2,-2.5310272E-2,-2.2064812E-2,1.3961122E-2,-3.2651614E-2,2.4422284E-2,4.1168083E-2,1.0064584E-2,-1.5396273E-2,3.7232406E-2,-1.4840601E-2,1.2774727E-2],"split_indices":[17,32,21,34,20,16,18,14,26,0,0,30,20,25,0,19,27,13,11,4,30,11,34,9,11,15,26,25,0,0,0,13,13,0,0,1,0,0,0,0,13,9,22,0,0,23,27,0,8,28,16,0,0,0,0,0,0,0,0,0,0,0,0,0,0,0,0,0,0,0,0,0,0,0,0],"split_type":[0,0,0,0,0,0,0,0,0,0,0,0,0,0,0,0,0,0,0,0,0,0,0,0,0,0,0,0,0,0,0,0,0,0,0,0,0,0,0,0,0,0,0,0,0,0,0,0,0,0,0,0,0,0,0,0,0,0,0,0,0,0,0,0,0,0,0,0,0,0,0,0,0,0,0],"sum_hessian":[3.7726147E2,1.5905508E2,2.1820639E2,1.491865E2,9.868591E0,1.4212541E2,7.608096E1,1.0527559E2,4.3910896E1,8.651673E0,1.2169185E0,1.3460199E1,1.2866522E2,3.1231747E1,4.484922E1,9.8817665E1,6.45793E0,3.1745682E1,1.2165215E1,1.0464365E1,2.9958344E0,2.1964233E1,1.0670098E2,6.7009397E0,2.4530806E1,1.0152495E1,3.4696724E1,9.559025E1,3.227415E0,5.215546E0,1.2423841E0,2.2432693E1,9.312988E0,1.0439116E1,1.7260993E0,7.468837E0,2.9955282E0,1.4988347E0,1.4969996E0,1.9691912E0,1.999504E1,4.6436615E1,6.026437E1,1.2370291E0,5.463911E0,1.4885976E1,9.64483E0,1.6932424E0,8.459253E0,6.085782E0,2.861094E1,3.2449863E1,6.3140385E1,5.960046E0,1.6472649E1,3.2099288E0,6.1030593E0,1.242596E0,6.226241E0,4.589146E0,1.5405895E1,6.322557E0,4.011406E1,5.5065125E1,5.199247E0,1.1675652E1,3.210324E0,1.2471558E0,8.397675E0,6.7724624E0,1.6867908E0,1.4835151E0,4.602267E0,1.6574549E1,1.2036393E1],"tree_param":{"num_deleted":"0","num_feature":"35","num_nodes":"75","size_leaf_vector":"1"}},{"base_weights":[-2.7597412E-2,-2.8701177E-1,4.422782E-1,-5.76578E-1,-1.046492E-1,-3.033455E-1,5.3282005E-1,-7.8011346E-1,-2.4643281E-1,-2.4498655E-1,1.9824545E-1,6.1688805E-1,-6.6547E-1,-4.276014E-1,5.662356E-1,-9.9124694E-1,-2.3582514E-1,2.0323339E-1,-5.468295E-1,-3.014212E-1,6.328671E-1,6.62071E-1,-1.2863193E-1,5.373275E-4,3.2990254E-2,1.0366649E-2,-9.40763E-1,1.969759E-2,-3.3690896E-2,9.511523E-1,4.3297955E-1,-3.5757188E-2,-1.107775E0,9.6177024E-1,-5.924032E-1,-5.2598065E-1,9.2274076E-1,-8.618167E-1,1.0791234E-1,-4.2554903E-1,1.1962537E-1,-1.3728284E-2,3.8364388E-2,1.0204062E0,1.05698034E-1,3.6545452E-1,-4.6652618E-1,2.7880806E-3,-1.1857102E0,1.101987E-2,1.2562134E0,8.561377E-1,2.724573E-1,1.951215E-2,-3.1199051E-2,-3.990037E-2,-1.6361268E-2,4.236978E-2,-3.7319486E-3,-2.5208738E-2,1.5466045E-2,1.9695226E-2,-3.7968375E-2,-2.7569141E-2,4.0714093E-2,-3.19218E-2,-3.248078E-3,2.3390707E-2,-1.0565167E-2,-1.5859144E-2,5.1074116E-3,-9.976052E-3,2.5016151E-2,3.6899008E-2,-1.6260693E-3,-2.4996083E-2,1.7374627E-2,3.0745417E-2,-3.5521039E-3,-3.8862232E-2,2.239718E-3,-4.1283346E-3,-4.236919E-2,3.1796325E-2,-1.2436518E-2,6.5119225E-3,4.1574124E-2,2.9077936E-2,-1.621268E-2,-6.8397946E-3,1.49383815E-2],"categories":[],"categories_nodes":[],"categories_segments":[],"categories_sizes":[],"default_left":[0,0,0,0,0,0,0,0,0,0,0,0,0,0,0,0,0,0,0,0,0,0,0,0,0,0,0,0,0,0,0,0,0,0,0,0,0,0,0,0,0,0,0,0,0,0,0,0,0,0,0,0,0,0,0,0,0,0,0,0,0,0,0,0,0,0,0,0,0,0,0,0,0,0,0,0,0,0,0,0,0,0,0,0,0,0,0,0,0,0,0],"id":16,"left_children":[1,3,5,7,9,11,13,15,17,19,21,23,25,27,29,31,33,35,37,39,41,43,45,-1,-1,-1,47,-1,-1,49,51,53,55,57,59,61,63,65,67,69,71,-1,-1,73,75,77,79,-1,81,83,85,87,89,-1,-1,-1,-1,-1,-1,-1,-1,-1,-1,-1,-1,-1,-1,-1,-1,-1,-1,-1,-1,-1,-1,-1,-1,-1,-1,-1,-1,-1,-1,-1,-1,-1,-1,-1,-1,-1,-1],"loss_changes":[4.7204163E1,1.31118355E1,9.4628315E0,6.269911E0,6.6064405E0,5.5943165E0,4.1965904E0,6.5498085E0,5.262823E0,5.435994E0,7.574899E0,1.4006709E0,3.5659528E0,4.290633E0,5.717949E0,4.6611633E0,8.175482E0,8.881904E0,4.8642936E0,5.2855234E0,5.3172364E0,3.9960747E0,5.14813E0,0E0,0E0,0E0,2.4955254E0,0E0,0E0,8.56064E0,5.9214783E0,4.5506597E0,3.9737244E0,2.3619828E0,4.3724318E0,8.339377E0,7.9821224E0,2.2823048E0,2.8718905E0,4.85454E0,7.8941636E0,0E0,0E0,2.8602486E0,4.563132E0,4.163645E0,8.236414E0,0E0,1.6316719E0,4.1591015E0,2.7377396E0,4.3869915E0,7.6918993E0,0E0,0E0,0E0,0E0,0E0,0E0,0E0,0E0,0E0,0E0,0E0,0E0,0E0,0E0,0E0,0E0,0E0,0E0,0E0,0E0,0E0,0E0,0E0,0E0,0E0,0E0,0E0,0E0,0E0,0E0,0E0,0E0,0E0,0E0,0E0,0E0,0E0,0E0],"parents":[2147483647,0,0,1,1,2,2,3,3,4,4,5,5,6,6,7,7,8,8,9,9,10,10,11,11,12,12,13,13,14,14,15,15,16,16,17,17,18,18,19,19,20,20,21,21,22,22,26,26,29,29,30,30,31,31,32,32,33,33,34,34,35,35,36,36,37,37,38,38,39,39,40,40,43,43,44,44,45,45,46,46,48,48,49,49,50,50,51,51,52,52],"right_children":[2,4,6,8,10,12,14,16,18,20,22,24,26,28,30,32,34,36,38,40,42,44,46,-1,-1,-1,48,-1,-1,50,52,54,56,58,60,62,64,66,68,70,72,-1,-1,74,76,78,80,-1,82,84,86,88,90,-1,-1,-1,-1,-1,-1,-1,-1,-1,-1,-1,-1,-1,-1,-1,-1,-1,-1,-1,-1,-1,-1,-1,-1,-1,-1,-1,-1,-1,-1,-1,-1,-1,-1,-1,-1,-1,-1],"split_conditions":[2.4427897E-1,-5.1070124E-1,-8.4259E-2,1.1178081E0,3.533101E-1,-8.578284E-2,-1.6851984E0,3.8843662E-1,-5.7307607E-1,8.5852647E-1,2.7935913E-1,5.5808353E-1,-3.8847828E-1,-3.4517887E-1,-1.6270666E-1,-8.7777793E-1,-1.1666564E0,-1.0034088E0,7.818593E-1,2.1020581E-1,-7.3906076E-1,3.8114738E-1,-1.6278295E-1,5.373275E-4,3.2990254E-2,1.0366649E-2,-5.021186E-1,1.969759E-2,-3.3690896E-2,-1.389096E-1,-1.6747768E-1,1.0203034E0,8.2551634E-1,1.0203034E0,-1.5436968E-1,-7.266139E-1,-9.568095E-1,6.515924E-1,-8.523403E-1,8.442309E-1,4.2071107E-1,-1.3728284E-2,3.8364388E-2,1.1874055E0,-2.2889723E-1,9.586368E-2,2.9524896E-1,2.7880806E-3,-1.3666283E0,-3.2816923E-1,-9.251665E-1,5.4791516E-1,1.9611923E-1,1.951215E-2,-3.1199051E-2,-3.990037E-2,-1.6361268E-2,4.236978E-2,-3.7319486E-3,-2.5208738E-2,1.5466045E-2,1.9695226E-2,-3.7968375E-2,-2.7569141E-2,4.0714093E-2,-3.19218E-2,-3.248078E-3,2.3390707E-2,-1.0565167E-2,-1.5859144E-2,5.1074116E-3,-9.976052E-3,2.5016151E-2,3.6899008E-2,-1.6260693E-3,-2.4996083E-2,1.7374627E-2,3.0745417E-2,-3.5521039E-3,-3.8862232E-2,2.239718E-3,-4.1283346E-3,-4.236919E-2,3.1796325E-2,-1.2436518E-2,6.5119225E-3,4.1574124E-2,2.9077936E-2,-1.621268E-2,-6.8397946E-3,1.49383815E-2],"split_indices":[17,17,18,31,24,20,28,11,19,13,20,13,5,15,26,4,12,19,1,18,23,25,18,0,0,0,18,0,0,8,21,13,5,13,18,14,23,4,17,12,10,0,0,1,14,13,11,0,12,9,19,20,14,0,0,0,0,0,0,0,0,0,0,0,0,0,0,0,0,0,0,0,0,0,0,0,0,0,0,0,0,0,0,0,0,0,0,0,0,0,0],"split_type":[0,0,0,0,0,0,0,0,0,0,0,0,0,0,0,0,0,0,0,0,0,0,0,0,0,0,0,0,0,0,0,0,0,0,0,0,0,0,0,0,0,0,0,0,0,0,0,0,0,0,0,0,0,0,0,0,0,0,0,0,0,0,0,0,0,0,0,0,0,0,0,0,0,0,0,0,0,0,0,0,0,0,0,0,0,0,0,0,0,0,0],"sum_hessian":[3.8521927E2,2.4844438E2,1.3677487E2,9.5168465E1,1.5327592E2,1.4555785E1,1.22219086E2,5.802992E1,3.713855E1,1.04875916E2,4.84E1,3.9117332E0,1.0644052E1,3.7127123E0,1.1850638E2,4.121942E1,1.6810495E1,1.5003357E1,2.2135193E1,9.915798E1,5.7179365E0,1.958469E1,2.8815311E1,2.2086442E0,1.703089E0,2.2233782E0,8.420673E0,1.472659E0,2.2400534E0,2.8897303E1,8.960908E1,4.622595E0,3.6596825E1,3.4674778E0,1.3343019E1,7.585001E0,7.4183564E0,1.4731707E1,7.4034867E0,7.6572975E1,2.258501E1,2.235524E0,3.4824128E0,1.1405123E1,8.179567E0,1.1669703E1,1.7145609E1,1.7320127E0,6.688661E0,7.333417E0,2.1563885E1,2.3452276E1,6.61568E1,2.9554815E0,1.6671132E0,2.5252985E1,1.1343841E1,2.2385979E0,1.2288799E0,1.1100896E1,2.242123E0,2.9619546E0,4.6230464E0,1.2028983E0,6.2154584E0,1.1289634E1,3.4420726E0,2.7270312E0,4.6764555E0,6.537416E1,1.119881E1,1.4157129E1,8.42788E0,9.422966E0,1.9821572E0,2.487275E0,5.6922917E0,4.4657655E0,7.203937E0,6.22211E0,1.0923499E1,1.4747307E0,5.21393E0,1.6864702E0,5.646947E0,2.687625E0,1.8876259E1,2.197794E1,1.4743363E0,2.0545948E1,4.561085E1],"tree_param":{"num_deleted":"0","num_feature":"35","num_nodes":"91","size_leaf_vector":"1"}},{"base_weights":[3.3654697E-2,-2.4076194E-1,5.2709395E-1,-5.418717E-1,-1.8150615E-2,5.602352E-1,-6.544364E-1,-1.2887343E0,-4.3463975E-1,8.805515E-1,-6.0325917E-2,8.653361E-1,4.4406965E-1,1.5308019E-2,-3.8869545E-2,-4.2108476E-2,-7.442582E-3,3.2530388E-1,-5.3927165E-1,3.9045937E-2,-5.027595E-3,-7.00074E-1,5.9294947E-3,1.1586204E0,